4975 32
great -0.9305212 -0.44599771 -0.47843355 -2.0427473 -1.3074566 0.012492495 0.88034785 0.24348903 -0.08663313 -0.30121598 0.12530161 0.26225668 1.9632243 0.00944061 0.9133528 0.17737986 -0.77151644 0.10965201 -0.9506785 0.3065417 -0.94858396 0.124798864 -0.37699175 -0.2640844 0.46739706 0.5851621 -0.32679132 -1.4893304 -0.82927954 -0.5412954 0.9321901 -0.5839003
tablet -0.7403355 -0.033797678 -0.91381323 -1.0046633 -1.4258999 -0.43653277 0.48448625 -0.45742977 0.3402779 0.17254588 0.058501504 0.20465654 1.5512066 -0.34836397 0.30756676 0.5718656 -1.3993131 0.05619955 -0.8705407 -0.39592102 -1.3603072 0.1672072 -0.16893354 -1.1901289 0.28214833 0.92247105 -0.2334538 -0.21900824 -0.65882957 -0.27506876 0.6563235 -0.84972775
love -0.39759865 -0.20885956 -0.10058412 -1.0200408 -1.3503656 -0.38476017 1.1339763 -0.41864252 0.39947194 -0.49441022 -0.50199246 -0.23845688 0.9577102 -0.6515515 1.0455186 0.52373314 -1.7676986 -1.136165 -0.28161722 0.09876437 -1.5795171 -0.05996768 -0.23281667 -1.0036861 0.64012694 1.7237226 -0.35372302 -0.5356912 -0.024542341 -0.30148095 1.2217852 0.29020035
use -0.42856574 0.26627183 0.022973912 -1.466565 -0.0032137623 0.51695585 0.8466603 -0.606712 0.18502042 -0.73688537 0.3779565 -0.066620454 1.0428927 -0.45128423 1.5787452 0.47091272 -1.3333882 -0.23645636 -0.14929299 -0.33894202 -1.31652 0.051298983 -0.09136788 -0.43640217 -0.31071386 1.8224136 -0.29187337 -1.8090061 0.65416074 -0.30385602 1.3486209 -0.38505864
wa -0.42445293 0.20786723 -0.36798942 -0.8822471 -0.8099622 -1.1931257 0.13419922 -0.29528043 0.83757436 0.3755723 0.32043552 0.04842913 1.6260955 -0.7300197 0.39434665 0.7498701 -1.5964687 -0.21827485 -0.1277486 -0.03486566 -1.5777264 -0.13024427 -0.7002924 -1.0038413 -0.25681514 0.49882552 -0.44837913 0.047717832 -0.49185863 0.2422524 1.1996404 -0.9861093
easy -0.993122 0.2827533 0.56709784 -2.2612972 -1.3204525 0.77852225 0.9600322 0.014563616 0.5058784 -0.933457 0.034830358 -0.85644597 2.217769 -0.306671 0.74469906 -0.68311125 -1.1803219 -1.7367765 -0.6026343 0.10501843 -1.7114229 0.5479268 -0.79196155 0.022515804 0.212584 1.0613308 0.5197807 -2.345584 0.6901121 -1.0100412 1.628601 -1.3907772
amazon -0.440573 -0.5936371 -0.85701036 -1.6837518 -0.54923135 -1.0083134 1.5261194 -0.3809891 0.863044 -0.7367259 0.92595387 -0.5091405 0.9868512 -0.36240214 0.8632568 0.47947347 -0.114183754 -0.25105697 -0.40555522 -0.6593274 -0.31514683 0.28137064 0.6088862 -1.2919649 1.4188063 0.9681507 0.47454867 0.023881448 -1.3740736 0.22839424 1.1247485 0.7642237
kindle -0.2634389 -0.106453136 -1.3002774 -0.8016018 -1.132653 -1.7813007 0.25626102 -0.9118888 0.77984613 -0.25852472 0.6926246 -0.6305324 0.57826585 -1.0345156 -0.12637633 0.51204544 -1.3668185 -0.375451 -0.4113476 0.07599595 -1.4444404 0.00097342936 0.1513955 -1.0508448 0.2322348 1.3331116 -0.11309068 1.0188757 -0.71950483 0.13679849 1.000478 -0.31937417
one -0.025208414 -0.24362719 -0.55666494 -0.48328167 -0.8618704 -1.8534788 0.33590168 -0.6603318 0.95833856 0.6559107 0.26365814 -0.13718024 0.8475506 -1.1120462 -0.056260973 1.0800389 -1.7917271 -0.19670391 -0.30016175 0.103233315 -1.6866674 -0.20543334 -0.24168636 -1.6888841 0.08498438 0.6062928 -0.3999081 0.9303675 -1.0916194 0.26313135 1.3508416 -0.7570971
bought -0.22683573 -0.13414438 -0.54642123 -0.4469952 -2.1326647 -2.0702193 0.82043153 -0.3506934 1.2531792 0.2926561 -0.5974152 -0.045243196 1.3633791 -1.3009305 0.5221399 1.4302511 -2.811732 -1.0360718 -0.18350449 -0.10616729 -2.4381387 -0.5615305 -0.8425967 -1.7812204 0.680355 1.1765913 -0.6859762 0.69099236 -0.606834 0.15833616 1.5716211 -0.09786586
good -0.6894582 -0.6003282 -0.7281169 -1.8823013 -0.8295928 0.09967338 0.21561368 0.09910957 0.13290362 0.08342021 0.7391517 0.3817704 2.1084135 -0.16488607 0.5793044 0.31523675 -0.8719106 0.7016789 -1.1030273 0.32763687 -0.98604876 0.3549801 -0.115233265 -0.41377285 -0.058523312 0.40267807 -0.11507027 -1.429336 -0.8422397 -0.5562345 0.8349843 -1.1028502
fire -0.4779546 -0.61470366 -1.7390263 -0.5176756 -1.3660996 -1.4369096 0.4086939 -0.74268687 1.3925835 -0.054755438 0.19314775 -0.03960357 0.9985915 -0.6019802 -0.015305828 0.79909056 -1.318488 -0.7329821 -0.9447911 -0.3969561 -1.4042901 -0.0010208462 0.19253752 -1.4231459 0.637179 1.208689 -0.29803047 0.8779752 -1.3311172 0.08600231 0.5816348 0.19283888
work -1.113541 -0.09450384 -0.9529904 -1.0261061 -0.801295 0.27951494 0.40209237 -0.39356604 0.20906153 -0.029575279 0.6832263 0.35339597 1.4676385 -0.00833243 0.48631966 0.52234495 -0.9505408 0.36175832 -1.1126547 -0.37067842 -0.67915165 0.8347017 0.4278198 -1.1441085 0.09378395 0.901187 0.059589606 -0.84107393 -0.31133437 -0.6274335 0.62042296 -0.46764368
price -0.89302284 0.017876113 -1.0026116 -1.1120918 -1.4083482 -0.24257281 -0.06829754 -0.1385386 0.23330608 0.67644966 0.3857095 0.9610769 2.4179275 -0.07286828 0.3183963 0.6278476 -1.3966227 0.82471645 -1.2191284 -0.5306393 -1.3488411 0.40425426 -0.21358742 -1.2072463 -0.09443878 0.35025534 -0.35135794 -0.6148607 -1.1300467 -0.64889973 0.2906412 -1.5942076
like -0.59866786 -0.36244076 -0.5452916 -1.63132 0.14833131 -0.25452885 0.5609819 -0.3483787 0.44096765 -0.3732634 0.67630184 -0.34066027 1.1119798 -0.5596695 0.41658697 0.28354007 -0.6113726 -0.12756993 -0.72924703 0.1621605 -0.7245735 0.4423982 0.29101142 -0.99042547 0.016262064 1.0512683 0.006867875 -0.43185845 -0.6469984 -0.075986095 0.94618684 -0.19852987
ha -0.59280145 -0.5623349 -0.74304783 -0.9839229 -0.80388176 -0.3239616 0.40970856 -0.24917905 0.5236503 -0.10386177 0.8213456 0.07068006 1.2622181 -0.37282163 0.5242097 0.45889455 -1.056741 -0.022283696 -0.6321197 0.32510236 -1.0872521 0.6796698 0.3568307 -0.91370475 0.068640955 1.0747457 -0.1365028 -0.70495105 -0.14985318 -0.48994523 0.7727972 -0.06753141
product -0.67696655 0.121934935 -0.77081233 -1.1856704 -1.0827587 0.13006935 0.34853482 -0.84168625 0.3453503 0.21514918 0.051661957 0.6529794 1.828208 -0.15303345 0.56663615 0.4824477 -1.1345794 0.5349359 -1.3138683 -1.0173641 -1.142283 0.01035982 -0.32190284 -0.9206109 0.3412889 0.71831506 0.12280603 -0.9398709 -0.9044131 -0.34166184 0.63496643 -1.3281236
would 0.3635406 0.14930198 -0.5449077 -1.4657574 0.15361805 -0.090886205 0.5144225 -1.5706599 0.35585558 0.11915812 0.014250259 0.2685904 1.583865 -0.40171087 0.4969876 0.95537555 -0.95437485 0.75869346 -1.497629 -1.4960556 -0.6168727 -0.7851361 -0.54304945 -1.2038622 -0.19114548 0.61114204 0.8044248 -0.5841252 -1.8267921 0.7835285 1.5033485 -1.6267767
tv -0.80955166 -0.5302255 -1.3990136 -1.2601464 -0.53971636 -1.2071738 0.9963667 -0.72244096 0.84762245 -0.8244462 0.81833017 -0.7357598 0.81856257 -0.6871354 0.13396426 0.4876836 -0.531876 -0.62577665 -0.82979405 -0.5766867 -0.7218636 0.58275133 0.96980256 -1.3395072 0.42347366 1.4008812 0.32761228 0.9949684 -1.2063589 0.2701602 0.86185503 0.57406056
get -0.36749667 -0.5868243 -0.38234216 -1.3290997 0.8117569 -0.8124509 0.6077964 -0.096810766 0.9096118 -0.2293243 1.0490042 -0.29048473 1.0553511 -0.6826109 0.07846272 0.6479131 -0.5266714 -0.047223058 -0.62665564 -0.06621379 -0.5268755 0.36212665 0.6627303 -1.5953822 -0.06420682 0.5699129 0.2232039 0.26422495 -0.95015305 0.04714105 1.2884804 -0.05071774
book -0.50247854 -0.77683985 0.021958739 -1.6784763 0.9491619 0.38650185 1.4412417 -0.30279654 0.9243638 -1.1351515 1.0630603 -0.4191506 0.8012276 -0.23366338 0.9055848 0.0044194167 -0.4553812 -1.0021495 -0.90384686 -0.02651454 -0.81007886 0.52216923 1.0580491 -1.0854776 0.30811247 1.644773 0.4606491 -0.6898844 -0.32628152 -0.29259735 1.6423798 0.70616144
kid -0.29967877 -0.059766762 -0.10199764 -0.96292895 -1.156507 0.15931827 1.3493534 -0.38812476 0.41156018 -0.32922414 -0.4915048 -0.01150784 1.0557089 -0.35067922 1.0911303 0.38587135 -1.4857746 -0.6947698 -0.55431557 -0.40306902 -1.3834652 0.02942382 -0.14455956 -1.1143525 0.56450284 1.2154635 -0.08561354 -0.86692667 -0.2620385 -0.38889927 0.9486817 -0.32061547
device -0.70713836 -0.3069093 -0.56776947 -1.459609 0.19683681 0.1039766 0.506114 -0.34864756 0.5989782 -0.21702492 0.96219933 -0.03920404 1.4230433 -0.2712727 0.51305664 0.3482915 -0.518027 0.21322066 -1.0128688 -0.41086778 -0.73089314 0.67655885 0.43284667 -1.0689013 -0.10303461 0.75904006 0.31707296 -0.79801744 -0.7043663 -0.24185303 1.0412593 -0.52751
echo -0.5117602 -0.2632304 -0.8377954 -0.7135952 -1.2454962 -0.6851302 0.65291077 -0.2546513 0.87079066 -0.12056434 0.1526864 0.10294116 1.0789598 -0.4015363 0.48909828 0.7406985 -1.1763122 -0.4899899 -0.5641788 -0.14892998 -1.224045 0.22018987 -0.09259002 -1.1076226 0.7120984 1.0179865 -0.21377815 -0.2934379 -0.52596736 -0.29308063 0.92360985 -0.06092344
read -0.016552506 -0.22590938 -0.17615838 -1.3897947 0.86462766 0.15257946 1.0624567 -0.52058035 0.667071 -0.9351526 0.86841094 -0.5607096 0.5881611 -0.8280642 1.0701561 0.0147457365 -0.896937 -0.70996684 -0.52011615 -0.13174984 -1.0050265 0.40794328 0.9027719 -0.80726814 0.060251363 1.6400068 -0.13623099 -1.118993 0.25337946 -0.5662717 1.6052239 0.014482432
much -0.26554585 -0.4788321 -1.2181501 -1.06872 -0.4167446 -0.9483782 0.010599504 -0.5135388 0.78102475 0.020877173 0.96971244 -0.38226366 0.910588 -0.8442437 0.016882876 0.46235102 -0.8915627 0.17179497 -0.8259606 0.2655591 -1.2279207 0.24936636 0.461286 -0.8706628 -0.20636736 0.97913563 0.0723324 0.22950487 -0.6923498 -0.18548222 0.717424 -0.6290392
music -0.7516936 -1.3070912 -0.05451743 -1.5711817 1.1483505 1.0755248 2.1014683 0.20083278 0.8268663 -1.6491004 0.71225506 -0.16648816 0.9057998 -0.18300328 1.8154014 0.45415938 -0.17601639 -0.765399 -0.71287024 -0.35187477 -0.67416424 1.1774688 1.7924091 -1.8623128 1.0371045 1.9259701 0.4519402 -1.606517 -0.2267238 -0.8631408 1.5584261 1.0700902
doe -0.88931596 -0.6654839 -1.031121 -1.7113737 0.4005368 -0.3268749 0.22776657 -0.087738656 0.14148553 0.035440825 1.2504776 -0.18836138 1.2938147 -0.36821994 -0.16073833 0.6968547 -0.5695257 0.57198834 -1.2551235 0.24232891 -0.18695547 0.7838112 0.8820289 -1.3353052 -0.3822573 0.70884395 0.069698974 -0.4136288 -0.7744328 -0.31278813 0.811976 -0.48295772
alexa -0.5921432 -0.55146587 -0.17529042 -1.4379593 0.45033 0.25275502 1.028746 -0.10821009 0.5407141 -0.59897107 0.76913774 -0.25700492 1.097735 -0.38781467 0.8343693 0.51652986 -0.7034981 -0.17324951 -0.6566808 0.022492753 -0.74377257 0.7467507 0.7690568 -1.4064598 0.19487342 1.3012627 0.24662235 -0.97202444 -0.31138617 -0.48926643 1.2803061 -0.023588564
time -0.047156 -0.8066686 0.08429439 -0.8740993 0.07479974 -0.3251882 0.44089863 -0.45846954 0.8580858 -0.16015042 0.99481523 -0.60469204 0.7001174 -0.98641473 0.27881867 0.4680153 -1.0516993 -0.14267726 -0.73399055 0.610412 -1.0718126 0.67481345 0.648341 -0.91623724 -0.09212134 0.71120137 0.24150422 -0.54068047 -0.31664127 -0.38955864 1.5053385 -0.27403262
apps -0.87507075 -0.80623543 -0.07794956 -2.0596814 1.1216 0.6123582 1.4009163 -0.3789913 0.7123922 -1.1499269 1.1783829 -0.52099806 1.1917182 -0.17844851 0.9101914 0.188284 0.05364423 -0.46831018 -0.94690585 -0.13178146 -0.22508226 1.1162683 1.3325133 -1.4903667 0.25783557 1.5575894 0.51385444 -1.1434311 -0.60451066 -0.43643203 1.4255644 0.6094237
well -0.8918539 -0.34127256 -0.5631984 -1.6682217 -0.41024524 -0.19608283 0.52866244 0.054422863 0.14015113 -0.19838631 0.74210066 0.16842142 1.5187992 -0.1744007 0.5516886 0.49422538 -0.5182144 0.43733355 -1.0690402 0.2903902 -0.71905047 0.556665 0.19446132 -0.7198134 -0.23546642 0.5279402 -0.032410946 -0.93415016 -0.6812232 -0.46157387 0.9093647 -0.70161057
play -0.41447154 -1.2572844 0.4068117 -2.0925608 0.6030666 0.74676085 2.4385395 -0.21755175 0.8306241 -1.2838341 0.29170793 -0.70234394 0.62750864 -0.45881617 1.6936368 0.16294973 -0.80729246 -1.1325023 -1.062238 0.34684256 -0.74864066 0.24316533 1.2039472 -1.8527421 0.4533649 1.855389 0.4820596 -0.54311746 -0.39426553 -0.36972558 2.0234451 1.6899287
reading -0.3394416 -0.3735824 -0.5335679 -1.3361144 0.33877236 0.35808176 0.8850968 -0.38799965 0.57331055 -0.6195333 0.91633075 -0.16604348 1.0328293 -0.47279567 0.92689174 -0.22609666 -0.66710943 -0.36823398 -0.88000387 -0.19563864 -0.8953635 0.55686516 0.89910877 -0.7894829 0.13925968 1.3430779 -0.010533102 -1.0961945 -0.06033571 -0.58891326 1.0797243 -0.15245134
game -0.55526817 -1.1388274 0.20917028 -1.1354774 0.6504997 0.8357304 2.2421134 -0.13215286 0.69187504 -1.7058413 -0.088762484 -0.3906708 0.5318519 -0.46228972 1.6763597 0.5433741 -0.859434 -1.3916054 -0.51896286 -0.2409711 -1.0228084 1.0870197 1.8019178 -1.889529 1.2056711 2.336617 0.001497824 -1.1901503 0.11436537 -0.98047197 1.6048814 1.1585898
best -0.4581444 -0.4464568 -0.43301404 -1.2691258 -0.7031001 -1.6588285 0.556544 0.050100688 0.7173036 0.7204146 0.49545604 0.3847986 1.9186499 -0.1579909 -0.19889829 0.95784473 -1.3361259 0.6993475 -0.610107 -0.120954074 -1.2497969 -0.43527827 -0.4188788 -1.3376051 0.41674304 -0.49286908 -0.38697338 0.43105158 -2.0989215 0.108424656 1.2201982 -1.3190951
really -0.4709416 -0.018392932 -0.7116276 -1.1986609 -0.8224554 -0.22110568 0.4786083 -0.39826238 0.3919109 -0.023334943 0.37976676 0.15058412 1.4711599 -0.2848184 0.6100685 0.33893833 -1.1802 -0.065341905 -0.7123078 -0.10129086 -1.1100755 0.17723894 -0.13566938 -0.8279886 0.2644564 1.0884306 -0.13264178 -0.8067569 -0.3633294 -0.37457386 0.7077535 -0.79936993
buy -0.5251916 -0.042649984 -0.3642342 -1.0633135 -0.564216 -1.2598687 0.21565467 -0.5540127 1.0928463 0.7253805 0.37925515 0.8756521 1.9230256 -0.6152254 -0.29048842 0.7660937 -0.9964922 0.65996444 -0.97429204 -0.8780051 -0.9406019 -0.5046484 -0.5083751 -1.6328279 0.46917588 -0.1966024 -0.18901844 0.46886837 -1.7587403 0.19871432 1.056357 -1.3982018
gift -0.18199535 0.45758313 -0.5679491 -0.48761505 -2.2532165 -1.3723216 0.84327245 -0.56438184 1.093421 0.675314 -0.808737 0.36153105 1.6597365 -0.9100439 0.89068556 1.3087146 -3.0503378 -0.8183792 -0.44489545 -0.4315852 -2.6974485 -0.6476084 -1.1776736 -1.5934746 0.7810743 1.2263064 -0.9053853 -0.014339025 -0.4659664 0.051660802 1.4599698 -0.9578102
screen -0.64377576 -0.4715041 -1.0604945 -1.4658974 0.11969087 0.18945916 -0.39823738 -0.019078944 0.48235387 0.13515617 1.8134345 0.13494764 1.6955538 -0.5052584 0.47776926 0.07033785 -0.7942627 0.65513253 -1.0082327 0.4148494 -1.3071083 1.0231191 0.43336934 -0.5368628 -0.9986323 0.9133635 0.13615249 -1.1642373 -0.05396725 -0.6080212 0.8262742 -1.1726676
old -0.52841157 -0.6661945 -0.78445625 0.033425596 -2.0820007 -1.1899719 1.4056417 0.5045867 1.7476599 -0.65749544 -0.6782978 -0.2762387 1.1369301 -0.6966765 0.49816564 1.4307752 -2.5647528 -1.2103252 -0.6559604 -0.4473645 -2.6289577 -0.5418828 0.07505498 -1.6642302 0.4412702 1.0172282 -0.3585042 0.014094627 0.801615 -0.5600656 2.0008461 1.0827398
purchased -0.2587117 -0.16452472 -0.6468156 -0.5180474 -1.8771868 -2.0868702 0.7645374 -0.41814682 1.3716921 0.22558416 -0.32564223 -0.06791291 1.284672 -1.165474 0.386376 1.2596989 -2.3300436 -0.88097143 -0.25543725 -0.20766248 -2.0922632 -0.53830606 -0.72021353 -1.6311871 0.7615723 0.97769034 -0.5282973 0.80019426 -0.8776909 0.26723891 1.4849927 -0.10934287
also -0.4393371 -0.6121109 -0.35721388 -1.347952 0.17150584 0.17688617 1.0135038 -0.18245974 0.63710415 -0.6375005 0.7812438 -0.25854462 1.0222745 -0.33771473 0.89415056 0.27952287 -0.54584956 -0.36319613 -0.71922344 -0.035764415 -0.8121416 0.5788177 0.65536726 -1.0337057 0.16450642 1.1640532 0.3001792 -0.86760706 -0.32426956 -0.39559242 1.1947763 0.17173691
year 0.009415417 -0.6832759 -0.40553874 -0.17626317 -2.0148673 -2.025956 1.0108054 -1.5372376 0.29481417 0.458753 -0.24000932 -0.8789519 0.1809798 -1.801269 1.4992272 0.8394799 -2.7074811 -1.5261656 0.12390728 0.46431792 -2.2062771 0.33973494 -0.19003965 -2.0361466 -0.07616958 2.5014062 -0.49454093 0.6843703 -0.6152275 0.12180266 1.7665329 -0.12390175
light -0.77809453 -0.13368864 -0.49138233 -1.9231315 0.81050247 0.72181815 0.32186726 -0.16383748 0.47784916 -0.5262191 1.8732063 -0.5015707 1.6684132 -0.58125836 0.91915226 -0.12707199 -0.7368205 -0.0062592644 -0.76588494 0.27201772 -1.3503855 1.2829835 0.5497583 -0.6320009 -1.1623089 1.2523186 0.3290421 -1.773325 0.37916407 -0.5784551 1.417306 -0.96230024
got -0.19998258 -0.17428677 -0.43428117 -0.42614228 -1.5729381 -1.6431525 0.7021065 -0.081873454 1.1256453 0.2947616 -0.28362316 0.043583963 1.3261123 -0.9334667 0.37934166 1.1594598 -2.2448328 -0.878243 -0.11462604 0.006729609 -2.0251598 -0.23053852 -0.463766 -1.618398 0.49402612 0.76312613 -0.6171264 0.6715527 -0.6146699 0.05581675 1.3047314 -0.1594166
better -0.58777976 -0.63041884 -1.359048 -1.3631161 -0.16714224 -1.010738 -0.46544203 -0.5032953 0.6116742 0.18575196 1.3735865 -0.073290944 1.3045434 -0.732404 -0.20625257 0.5224431 -0.570052 0.81808716 -1.0817813 0.21809158 -0.89139104 0.64413697 0.63267344 -0.9167559 -0.21770641 0.58783025 -0.0022495636 0.18360792 -1.1598313 -0.16497906 0.68896544 -0.772442
recommend -1.3092723 0.89293045 -0.7594188 -3.0221422 0.22409016 0.24239634 0.3317013 -2.1294596 0.9488555 -0.005738688 -0.89542466 -0.14565708 1.2229295 -1.8510636 0.5651852 0.46199444 -0.86223686 1.89393 -2.3259811 -2.187609 -1.8804765 -1.5117761 -1.3995749 -0.38196135 1.0066634 0.4481505 0.36383492 -1.520376 -2.3694623 0.023443602 0.9258074 -2.4985545
thing -0.57829857 -0.51443106 -0.39777723 -1.2671789 0.5216302 -0.2268536 0.65480185 -0.2749037 0.5337087 -0.2592534 0.9549166 -0.20913112 1.0300063 -0.37946764 0.21894874 0.4694032 -0.53831166 0.07340166 -0.8254971 0.012610682 -0.54862916 0.6003901 0.8043579 -1.4276804 0.115993954 0.9776119 0.09595981 -0.36553493 -0.727119 -0.38805994 1.0404997 -0.2584254
need -0.8641158 -0.46542025 -0.7047922 -1.7217829 0.3712461 -0.14025187 0.54273945 0.027052963 0.21421233 -0.059603516 1.0245287 -0.16611747 1.3970858 -0.29678276 0.1939499 0.50925124 -0.6263026 0.33715215 -1.0748062 -0.021741739 -0.44560662 0.5440482 0.49064907 -1.1954751 -0.2157239 0.73924035 0.11926686 -0.6252735 -0.7160553 -0.30179384 0.95589495 -0.5756584
lot -0.6288668 -0.5041753 -0.29207158 -1.6561481 0.053870708 0.23710464 1.0345317 -0.23903336 0.35229513 -0.5696874 0.668927 -0.25355652 1.2724923 -0.23473355 0.6864308 0.15639901 -0.4753467 -0.2582451 -0.8632377 0.0021543084 -0.63998824 0.527092 0.5001228 -1.0716537 0.25929475 1.1545922 0.1860091 -0.9558778 -0.5221259 -0.4285176 0.9895632 -0.11183923
set -0.5260322 0.47638103 0.40233234 -1.4389349 -0.05653244 0.53618467 0.88540107 -0.25211617 0.2843249 -0.6593086 0.3622991 -0.17282341 1.2401855 -0.28299057 1.5794908 0.42592084 -1.4697069 -0.7350585 0.13965136 -0.25030273 -1.3844557 0.23946755 -0.28097227 -0.48343515 -0.4450717 1.7451236 -0.23209229 -1.8533268 0.96592754 -0.4016304 1.5438087 -0.58801436
perfect -0.6261446 -0.21163113 -0.29173002 -1.4246035 -0.93426555 -0.11956639 0.7617699 0.1611074 0.40187633 -0.2201261 0.07473211 -0.084928714 1.525929 -0.5331951 0.9777102 0.12390701 -1.3455365 -0.6635503 -0.43029648 0.33714518 -1.606305 0.041948333 -0.33856973 -0.5197432 0.18183719 1.163555 -0.37665516 -1.1714038 0.11736201 -0.44420373 1.2138166 -0.54520535
nice -0.82449764 -0.21739435 -0.7375202 -1.840769 -0.494499 0.19448268 0.23346877 -0.079279415 0.23300157 -0.083135724 0.79850817 0.12437311 1.872359 -0.35168839 0.66709733 0.13931528 -0.8681219 0.36114168 -0.8648082 0.19794734 -1.1113043 0.503301 -0.19807608 -0.5220306 -0.24254303 0.8465609 -0.12228333 -1.386473 -0.34683633 -0.4734541 0.7667645 -1.011232
new -0.22658686 -0.36623535 -0.7524281 -0.8373553 -0.5505216 -1.2188185 0.61186343 -0.48858967 0.8831564 -0.22822174 0.4440754 -0.4468141 0.75786686 -0.84024054 0.10891225 0.5505939 -1.240684 -0.4364076 -0.35998523 0.14534606 -1.2882957 -0.009475281 0.122566015 -1.2417353 0.28512222 1.0945692 -0.21025681 0.36815387 -0.71643066 -0.028424004 0.9225187 -0.09716094
home -0.7370304 -0.002021888 -0.47065204 -1.7817743 0.49355936 -0.10853854 0.6157229 -0.36153176 0.78381103 -0.315208 0.9319513 -0.52409273 1.1991643 -0.33869419 0.4734239 0.45075396 -0.42996913 0.123525776 -0.76776934 -0.2662092 -0.6496925 0.8604635 0.28715724 -1.2122372 -0.43443203 0.68243134 0.20486316 -0.5583021 -0.7398955 0.0133973 1.1236794 -0.27445385
little -0.6972699 -0.3166976 -0.7092509 -1.2932004 -0.45003304 -0.20799041 0.10445004 -0.09202784 0.45136207 0.25861496 0.916852 0.1758825 1.6901752 -0.37089804 0.28352228 0.46318188 -1.0065515 0.43333372 -0.89507717 0.13101856 -1.0920081 0.5499614 0.15237719 -0.95629644 -0.27169397 0.56353635 -0.08656625 -0.66735905 -0.52568364 -0.45311746 0.7663922 -0.93939245
purchase -0.48703718 0.031995974 -0.5511294 -0.97878337 -0.883643 -1.1304665 0.2792538 -0.4806866 1.0623183 0.47669867 0.18757483 0.5559484 1.6530865 -0.62495786 0.12300009 0.7059409 -1.3157048 0.25745416 -0.73078805 -0.6919627 -1.212835 -0.43513036 -0.67484754 -1.2515893 0.3810518 0.1860229 -0.08907101 0.09660137 -1.122388 0.044286482 1.0498585 -1.0548451
even -0.33302563 -0.63099325 -0.407153 -1.2788329 0.37711716 -0.16361606 0.6928463 -0.192574 0.77556294 -0.43810797 1.0073482 -0.47700062 0.9830716 -0.62080586 0.581582 0.40173328 -0.62063974 -0.18872316 -0.6265572 0.0513818 -0.8799193 0.5615765 0.75317156 -1.2005843 -0.25929776 0.935277 0.2836096 -0.4113215 -0.44644362 -0.172016 1.2211169 -0.064230666
quality -1.0385746 -0.7911976 -1.3351786 -1.8498608 -0.90312296 0.7333923 -0.19328688 0.032843407 0.12733008 0.16441327 1.2261434 0.97976804 2.5477417 -0.06439033 0.84558123 0.015644435 -0.75969833 1.1620247 -1.6714164 0.1221214 -1.3040905 0.80891466 0.18251199 -0.58388734 -0.25380126 0.6772942 0.14448562 -1.9122646 -0.549832 -1.2071611 0.40145603 -1.3407376
make -0.48581567 -0.45141393 -0.4301589 -1.5687826 0.49111122 0.05562374 0.19292445 -0.4765521 0.5153482 -0.22186689 1.533358 -0.070918776 1.375702 -0.49894422 0.77612287 0.41755286 -0.6199644 0.5180809 -0.9113435 0.093136646 -0.88941574 0.7743394 0.5428615 -0.56183195 -0.31647936 1.0495741 0.3282674 -1.2100711 -0.2409772 -0.42213035 1.1700612 -0.6781071
want -0.5876788 -0.6274001 -0.24925768 -1.771878 0.9279278 0.032539077 1.101636 -0.16792735 0.5253028 -0.49107435 0.6784422 -0.270981 1.0555482 -0.39564312 0.44119987 0.44844097 -0.36765137 -0.114308156 -1.0917222 -0.4569106 -0.350789 0.26338327 0.6671698 -1.4756558 0.16853793 0.84780717 0.39823276 -0.46233705 -0.99760073 -0.11630634 1.3294201 -0.13659178
movie -0.5671734 -1.759094 -0.08229615 -1.8557683 1.0256568 0.8709982 2.2957852 0.016642014 0.8645969 -1.3130991 1.0423464 -0.3587979 1.0214357 -0.16275086 1.8445756 -0.22007814 -0.25412178 -1.2684588 -1.4208809 -0.15155517 -0.5869313 0.80417526 1.8679743 -1.471818 0.5227214 1.902644 0.6053741 -1.0209926 -0.43478966 -0.70207715 1.7420173 1.3949671
using -0.26391715 -0.3845699 -0.47067082 -0.99512416 -0.056219056 -0.5016578 0.8444746 -0.39995664 0.8992163 -0.43232483 0.5623116 -0.37028727 0.83805513 -0.6568943 0.6108751 0.53718746 -0.9723051 -0.4848889 -0.4642831 -0.072840504 -1.0138384 0.22605005 0.40570125 -1.2011974 0.17909749 1.0844114 0.064939335 -0.21365367 -0.4730712 0.023763252 1.1879258 0.17520453
could -0.30859295 -0.5617068 -0.35391694 -1.1752198 0.37470987 -0.7356599 0.5313784 -0.06602585 0.85769695 -0.030939905 0.78640497 -0.41353902 1.1483085 -0.64181656 0.14324683 0.5593859 -0.79798573 -0.22164507 -0.6444865 0.13764362 -0.9497062 0.2882991 0.4638787 -1.3254508 -0.19146 0.5099874 0.1337608 0.22113161 -0.95512116 0.043910887 1.2796221 -0.3618561
prime -0.93457365 -1.1828345 -0.5890238 -1.270806 0.010698144 -0.26591575 1.9123627 -0.0035602746 1.847057 -1.0910983 0.7128246 0.07965804 1.1065221 -0.1505399 0.94728976 0.3719741 0.38588524 -1.4111809 -1.1800525 -1.208572 0.025066847 0.41792375 1.1091311 -1.6532584 1.9261004 1.3187798 0.5910633 -0.54497397 -1.4333698 0.34527028 1.5210073 1.8130983
feature -0.77778924 -0.20044798 -0.65186185 -1.4070531 -0.2020922 0.15322146 0.4150414 -0.36262372 0.41021544 -0.31875643 0.890136 0.011226198 1.4371805 -0.19849992 0.47721842 0.14397752 -0.5920403 0.104236566 -0.77657783 -0.049827587 -0.8377271 0.7263168 0.2982759 -0.8702642 -0.028808828 1.1069571 0.13213754 -1.0625018 -0.35558498 -0.5341308 0.7109608 -0.52869856
christmas -0.18763141 0.04585219 -0.41727608 -0.47037274 -2.268499 -1.65683 1.0587845 -0.46984762 1.324381 0.5162995 -0.75792116 0.058181208 1.5093647 -1.263126 0.87319326 1.4565606 -3.0482078 -1.092697 -0.0581861 -0.021070827 -2.861767 -0.5949244 -0.9364556 -1.7737617 0.6771969 1.3822877 -0.9183832 0.2201236 -0.37810907 -0.11582357 1.6148181 -0.39505565
battery 0.70902103 -1.663555 -0.12943338 -0.16710074 -1.0306836 -0.2993051 -1.2644013 -1.8513052 -0.08339216 1.1699696 2.721411 0.5123658 0.6955113 -1.1531506 1.650349 1.6868948 -2.1532464 2.3992069 -2.235329 1.1313363 -1.4804518 1.9059243 1.5859827 0.58617365 0.6366158 1.5551752 0.87744933 -2.3722172 0.74177176 -2.0672874 1.8549076 -1.7400258
sound -0.99827826 -0.7159239 -1.1308838 -1.7312359 -0.9943999 1.1036068 0.06383643 0.28788286 -0.101163395 0.12206784 1.0720382 1.1055427 2.4520478 0.15076281 1.0318881 -0.024450962 -0.91012764 1.0658344 -1.4913328 0.12261423 -1.3006884 1.1122853 0.24122992 -0.58332634 -0.22884987 0.9138219 0.1061901 -2.109687 -0.28720775 -1.340525 0.28087834 -1.2969874
size -0.6486517 0.03997893 -0.98236346 -1.4160215 -0.9398571 0.7862461 0.17793244 -0.076052256 0.19238305 0.05433559 0.855136 0.3424755 1.8285608 -0.29554707 0.9001584 -0.2053264 -1.429764 0.16434959 -0.8457343 0.12791455 -1.6929846 0.76266754 -0.14661944 -0.31755692 -0.551713 1.2787694 -0.31279287 -1.7000151 0.6887615 -0.8064156 0.63678086 -1.079234
able -0.49520677 -0.45367542 0.16629277 -1.4592173 0.47545046 0.1401538 1.356136 -0.020498525 0.797079 -0.8876724 0.4718103 -0.63040024 0.9358923 -0.4687618 0.97298926 0.1312099 -0.8096629 -1.1515942 -0.45644227 0.029366696 -0.9806288 0.46222115 0.58638287 -1.1827651 0.1518897 1.3640734 0.20304957 -0.7529087 -0.051022492 -0.30246904 1.5681127 0.23350222
go -0.26438215 -0.6118994 -0.37271807 -1.2897856 0.61337376 -0.46095386 0.53244823 0.009296848 0.74624187 -0.15824242 1.1273482 -0.22485976 1.2309347 -0.5629314 0.11551735 0.49835908 -0.6144185 0.051561773 -0.7930713 0.11799331 -0.6506813 0.5189545 0.6716072 -1.2772559 -0.0920885 0.50168055 0.20893845 -0.12449701 -0.80796623 -0.13567406 1.2581059 -0.15865256
first -0.1563404 -0.1310828 -0.7950964 -0.6002253 -1.1864636 -1.5307832 0.24133004 -0.47706944 1.0464337 0.35544643 0.27579463 -0.16062236 1.129965 -0.9639363 0.0026935826 0.92683697 -1.8034018 -0.31976646 -0.39988303 -0.051316623 -1.7233725 -0.18219984 -0.32487145 -1.2906767 0.15334956 0.68477076 -0.3922863 0.6107699 -0.77467114 0.13545749 1.0718037 -0.63354933
everything -0.8580103 -0.26368046 -0.69316256 -1.4279206 0.046021335 -0.22390229 0.50717145 0.055038437 0.10645957 0.060373534 0.73297113 -0.23137753 1.2157035 -0.2283968 0.096421376 0.59376276 -0.59515613 0.45943344 -1.1246392 -0.13262932 -0.34342787 0.38004354 0.28574225 -1.1974003 0.13557088 0.93015987 0.070200674 -0.51479924 -0.78993076 -0.4337041 0.9358401 -0.8429331
daughter -0.124731675 -0.06184374 -0.44052055 -0.3615914 -1.7317429 -1.0648503 1.2249895 -0.43465945 0.7702383 -0.10973108 -0.593773 -0.34065112 0.6549345 -0.87442654 0.9144798 0.9001298 -2.2678294 -1.1579525 -0.1388088 0.031135393 -2.116672 -0.18766423 -0.26153335 -1.4319377 0.6359716 1.5774647 -0.6029284 0.025124587 -0.046894457 -0.31103462 1.3318877 -0.005816505
son -0.11176533 -0.13390377 -0.3458676 -0.3788596 -1.5969177 -0.8854065 1.2182796 -0.40249568 0.7354988 -0.119316764 -0.60955197 -0.2545018 0.65190023 -0.81299484 0.9716143 0.8030819 -2.130215 -1.137771 -0.15940472 0.022248609 -1.9928013 -0.19737953 -0.22893162 -1.3573452 0.6415245 1.5055084 -0.54810965 -0.027193094 -0.06895072 -0.32912132 1.3228759 0.065262526
many -0.59062 -0.6875481 -0.27948332 -1.6621802 0.33775976 -0.020901186 1.1361291 -0.17080013 0.56617016 -0.6932074 0.8501097 -0.46482116 1.1666212 -0.30535957 0.63578683 0.23252329 -0.4419006 -0.30643138 -0.77900857 0.08004499 -0.5606932 0.6973484 0.7998775 -1.3368602 0.39880243 1.2401601 0.22624028 -0.7799234 -0.63174546 -0.3416534 1.2093228 0.26572594
happy -0.39068934 -0.12120359 -0.47004974 -0.9203294 -1.2886378 -1.0845748 0.36912945 -0.46559304 0.73189086 0.41287002 -0.0010686003 0.08676112 1.4596072 -0.6858825 0.36957398 0.78121865 -1.5759677 -0.085739814 -0.61279595 -0.0648093 -1.5019277 -0.36931017 -0.66055286 -0.94636476 0.26959744 0.45982245 -0.30537823 -0.0044202115 -0.9519088 0.032172043 1.0927864 -0.89130485
speaker -0.8803865 -0.59217167 -1.069767 -1.5957919 -0.4816974 0.603155 0.079883 0.106424935 0.23619221 0.048635907 1.1801138 0.7259981 2.09585 -0.0011671183 0.7376352 0.25437698 -0.68914175 0.97485375 -1.268626 0.023506003 -1.0380242 0.88423574 0.27826542 -0.7926661 -0.2554011 0.6506133 0.19065395 -1.56299 -0.48870713 -0.88326925 0.535987 -1.1012658
watch -0.66084707 -1.1959302 -0.0031023866 -1.4049911 0.6910133 0.52950656 2.1686096 -0.14407225 0.85659 -1.3315505 0.4514817 -0.4976908 0.72973466 -0.56287235 1.45926 0.21432188 -0.55508304 -1.4084278 -0.9466837 -0.2193888 -0.8456475 0.7767199 1.6401922 -1.6912311 0.7340364 2.0494983 0.37878326 -0.73684067 -0.38136083 -0.5138495 1.8667648 1.4008136
still -0.4613787 -0.5588269 -0.5663763 -1.1879346 0.012431919 -0.56588817 0.5367972 -0.26372474 0.7262892 -0.20945342 0.88704777 -0.29030427 1.1030886 -0.62859625 0.18172435 0.60069376 -0.87321967 0.005601918 -0.70584863 0.10022014 -0.8700014 0.5116688 0.55589265 -1.337969 -0.038403522 0.8670062 0.0012248538 -0.16044629 -0.67479324 -0.23109496 1.0513862 -0.34890383
ca -0.7900187 -0.5764922 -0.7071347 -1.2987877 0.54567105 -0.43356794 0.5659745 0.298867 0.5318945 -0.09386452 0.91443396 -0.18808553 1.8091538 -0.16192372 0.095497385 0.5378443 -0.5105468 0.045150585 -0.9155825 -0.085155495 -0.74310315 0.8907252 0.5078343 -1.5456648 -0.47729445 0.23001951 0.25443053 -0.31072277 -1.3269054 -0.18564475 0.9477536 -0.33042896
used -0.30006403 -0.53064525 -0.3748531 -0.96037096 -0.03139511 -0.7127419 0.58095926 -0.29800907 0.8140173 -0.12331024 0.7196687 -0.30725694 0.9229717 -0.6764956 0.36618808 0.63429785 -0.97792685 -0.22844197 -0.52560323 0.18779033 -1.0382328 0.31928992 0.48828986 -1.2480977 0.025414608 0.8293125 -0.08787311 -0.007693307 -0.60242915 -0.06457299 1.1624129 0.011710796
fun -0.58517826 -0.17068368 0.0744879 -1.6014689 -0.1982412 0.3776455 1.0554138 -0.4787494 0.4072964 -0.5904001 0.1612419 -0.15273191 1.2835151 -0.3687423 0.94896436 0.31741008 -0.962047 -0.5740222 -0.6830807 -0.15402302 -1.0416178 0.32782665 0.22546756 -0.96792364 0.45741 1.417018 0.0476467 -1.3318478 -0.19117169 -0.5139206 1.2652092 -0.2334072
app -0.72520816 -0.94146717 -0.32476306 -1.9646226 1.2186202 0.045072228 1.170375 -0.3204388 1.0900519 -1.0364207 1.3300482 -0.6427859 1.2042489 -0.35354197 0.63245714 0.49220628 0.0020725646 -0.22648013 -1.0154549 -0.0340829 -0.22693732 1.0095525 1.3780162 -1.7863717 0.19469413 1.2658309 0.5706724 -0.46682414 -1.0027361 -0.084652655 1.5306829 0.698248
day 0.22228639 -0.54016364 -0.13050804 -0.46041903 -0.5691329 -0.8786244 0.7083222 -0.55581135 1.0626144 0.08254938 0.38394377 -0.5050545 0.57247746 -1.1425301 0.4128651 0.90577734 -1.7499593 -0.5986293 -0.41212028 0.5906124 -1.4698247 0.12537594 0.33349428 -1.225466 0.28491855 0.84651023 -0.14681932 0.018075043 -0.2789205 -0.22360088 1.5943681 -0.113997325
control -0.98882544 -0.07576344 -0.21342814 -2.0870214 0.50645655 0.77165216 0.6403459 -0.10169065 0.4723505 -0.7810326 1.0733132 -0.59449434 1.486369 -0.12280596 0.988459 0.2151981 -0.8253925 -0.5031177 -0.41373876 0.24642225 -0.89425683 0.96936077 0.33418292 -0.86822575 -0.9967892 1.19988 0.25490227 -1.8461646 0.27667868 -0.78279716 1.4543451 -0.386077
fast -0.6554733 -0.34075662 -0.57405776 -1.5358573 -0.4428796 0.40707996 0.2705597 -0.1842948 0.25106698 -0.11191071 0.93184274 0.23418488 1.7629268 -0.26186365 0.6575543 0.20119415 -0.8854929 0.48707214 -1.003569 -0.01516025 -0.9707504 0.61657035 0.18287425 -0.491573 -0.31296185 0.760777 0.041228358 -1.511628 -0.16128536 -0.61542916 0.83851147 -0.9684934
item -0.35812375 -0.018536666 -0.36493123 -0.86911315 -0.7041198 -0.35623464 0.6923602 -0.48929194 0.5915447 0.09912907 0.0077870847 0.16513906 1.2756425 -0.41542256 0.6352874 0.65606815 -1.2626022 -0.1291827 -0.6788252 -0.51102334 -1.2083066 -0.05393655 -0.25789 -1.1294407 0.26853076 0.7908301 -0.06532089 -0.42822647 -0.6457588 -0.106701 1.0020442 -0.60955846
far -0.4660161 -0.390953 -0.61361647 -0.91611433 -0.83249754 -0.5739848 0.32826626 -0.3270876 0.62448734 0.16910535 0.5611383 0.21058303 1.3951627 -0.47018975 0.3276071 0.52145237 -1.1542828 0.16952746 -0.76101315 0.03109106 -1.1227055 0.23671147 0.06555585 -1.0707171 0.10770141 0.66850835 -0.15608709 -0.30711055 -0.6066491 -0.37182912 0.83342123 -0.7054396
ipad -0.42022622 -0.4722078 -0.7993761 -1.1855472 0.000419693 -0.80406797 0.22523767 -0.33482593 0.768639 0.012900116 0.8287696 -0.28420877 1.1766549 -0.6908247 0.095171615 0.64204663 -0.9387872 0.14942735 -0.8577907 -0.12959656 -0.9671819 0.2916877 0.41674748 -1.3315642 -0.11108538 0.66225743 0.04121119 0.12678775 -0.8970453 -0.03681736 1.0228034 -0.52307874
take -0.30559155 -0.69058967 -0.3364324 -1.3192422 0.42209852 0.06791237 0.55998296 -0.18332012 0.6501555 -0.36356908 1.2407011 -0.26073465 1.0974805 -0.6196399 0.60280526 0.34098247 -0.7668532 0.019886516 -0.808813 0.34006253 -0.9723979 0.7583534 0.77564293 -0.89542925 -0.24581504 0.9852052 0.13956678 -0.90367126 -0.14108689 -0.5197324 1.2372214 -0.23476672
awesome -0.64194185 -0.3633535 -0.5892317 -1.4677598 -0.67263335 -0.04352855 0.5419256 -0.22546157 0.31900173 -0.17541581 0.52087677 0.07509729 1.5842061 -0.29607847 0.6666241 0.34756756 -0.97341746 0.14310887 -0.8983488 0.008266235 -1.0460312 0.34867758 0.09828314 -0.7538796 0.089385524 0.8860713 -0.048333924 -1.004869 -0.59006554 -0.4736278 0.9388515 -0.6133816
life -0.11487814 -1.5670592 -1.2775775 -1.1922753 -1.5184093 0.9792364 -0.10436961 -0.4317323 1.2984834 -0.13634759 1.5450698 -0.1331047 1.9623237 -1.2736987 -0.14156985 -0.32037634 -1.3460584 1.4848158 -2.1419308 1.4016669 -1.8921597 0.8490705 1.1380161 -0.3009791 -1.4015131 -0.11037097 -0.28630802 -2.2415981 -0.43769255 -1.3014882 0.8210262 -0.8489756
stick -0.6016215 -0.35384133 -1.7090081 -1.0627882 -1.0330328 -1.7367603 0.25659958 -0.7807154 0.8960145 -0.15281749 0.8246173 -0.4740554 1.055323 -0.9656734 -0.26597485 0.8696752 -1.0936569 0.08130253 -0.8672898 -0.20263442 -1.1761278 0.14156549 0.41294762 -1.2227117 0.18381722 1.075344 0.02477687 1.187674 -1.3484942 0.2510787 0.7200841 -0.33985707
box -0.6691814 -0.37605816 -0.99755424 -1.1976137 -0.5336095 -0.7770737 0.5754385 -0.34525496 0.7938192 -0.16731545 0.7077743 -0.121369496 1.3455825 -0.56309533 0.21963754 0.58073056 -0.94695497 -0.1388648 -0.81120396 -0.2663622 -1.0727886 0.32009533 0.3197471 -1.2820262 0.1837579 0.92743033 -0.023138322 0.0744213 -0.9030215 -0.09632573 0.9309991 -0.30455822
video -0.6513383 -1.4550091 -0.21732743 -1.8298368 0.83191293 0.8992337 1.7609715 0.13151343 0.6869268 -1.1778316 1.1334735 -0.24752243 1.1309099 -0.13363355 1.5853018 -0.046747964 -0.17756511 -0.7175712 -1.2110178 -0.06924776 -0.53327626 0.9215521 1.5283788 -1.2652304 0.4701991 1.6091787 0.560585 -1.2794545 -0.3940099 -0.67319524 1.4811996 0.9752118
family -0.15375613 0.15252516 -0.22112384 -0.67030984 -1.0926703 -0.7798157 1.1646906 -0.6533843 1.0446036 0.04032524 -0.6869378 0.12669471 0.97940934 -0.69319004 0.7393045 0.87738985 -1.4729705 -0.6439974 -0.5476146 -0.7997113 -1.378377 -0.6121369 -0.5817438 -1.2352883 1.121051 1.0571218 -0.06652725 -0.21749967 -0.96371096 0.3587564 1.2630347 -0.09525829
way -0.51395136 -0.52322435 -0.618376 -1.3135477 0.19617467 -0.40104765 0.50551236 -0.3149602 0.73526347 -0.20131114 1.0993402 -0.23098719 1.2520031 -0.49119478 0.31821626 0.3821767 -0.7024769 -0.0056327214 -0.85906917 -0.01323588 -0.8439838 0.6176734 0.6147569 -1.1760081 -0.08855642 0.9277332 0.1837207 -0.34517714 -0.67770743 -0.23357812 1.0861869 -0.3885753
excellent -0.6984672 -0.33838025 -0.7102629 -1.7229189 -0.8451397 0.14730814 0.28269064 -0.21624157 0.24121507 0.04823263 0.66614574 0.4133926 1.9956826 -0.22380245 0.7236667 0.31655523 -0.94160706 0.60688585 -1.1585819 -0.082415424 -1.0720799 0.31430596 -0.20904839 -0.5064167 0.0016076819 0.60417527 0.016707448 -1.4003234 -0.779986 -0.48610225 0.818714 -1.1324558
money -0.7764299 -0.14394219 -0.82629025 -1.5165886 -0.4558187 -0.50088656 0.09003797 -0.3704574 0.43749705 0.39459124 0.7450055 0.631594 2.0031304 -0.31381813 0.07709117 0.7570992 -0.8583175 0.95184183 -1.3511372 -0.5352381 -0.8125345 0.28510177 -0.004059229 -1.2043221 -0.22872724 0.13105972 0.07857738 -0.4730389 -1.5143837 -0.2771403 0.6701357 -1.4311047
without -0.4312222 -0.7087495 -0.27111003 -1.5555921 0.95749146 -0.14023554 0.8363888 -0.27234438 0.8437568 -0.57527447 1.2062999 -0.4719537 1.0618286 -0.70471394 0.6061221 0.4201805 -0.6121842 -0.15164697 -0.8707372 -0.013504012 -0.79864675 0.627894 0.847551 -1.2759575 -0.110409796 0.9816801 0.34110916 -0.5819202 -0.5806881 -0.23079239 1.5425489 -0.02585791
paperwhite -0.41978744 -0.18692252 -1.1439999 -0.9937296 -0.9287597 -1.1173016 0.19773984 -0.62470305 0.98224443 0.10947836 0.5624033 -0.104561694 1.3396484 -0.81182766 0.17262292 0.69396853 -1.61624 -0.115173995 -0.7945596 -0.008802064 -1.7584815 0.011866147 -0.18477209 -1.2019672 -0.0012865217 1.0145906 -0.23587467 0.12230319 -0.78908604 -0.08782904 1.0320966 -0.74355525
cable -0.4697689 -0.620264 -0.53076017 -1.1906146 0.4061793 -0.72674006 0.60353535 -0.13131177 0.9625935 -0.007993881 0.96417546 -0.22731626 1.2861158 -0.66027945 0.2624329 0.70369613 -0.91776544 -0.07333633 -0.7814921 -0.16942808 -0.9068695 0.33522898 0.5448742 -1.4738879 -0.23854335 0.5520128 0.13658464 0.028950166 -0.8477015 0.00886344 1.3806556 -0.25710252
voice -0.9300615 -0.3173181 -0.5704007 -1.8291528 0.3892169 0.53591406 0.5621345 -0.02314656 0.44043756 -0.41479304 1.3270261 -0.21587706 1.747806 -0.27179095 0.9309274 0.13215779 -0.52047116 0.17012873 -0.92407334 0.06521702 -1.013855 1.0926346 0.525753 -1.0692902 -0.6497837 1.1363199 0.2691092 -1.5942665 -0.27792913 -0.52503127 1.2003064 -0.5824755
wife -0.060668137 -0.04302878 -0.60055596 -0.34776065 -1.5199416 -1.2509909 0.8621994 -0.42270303 0.8947904 0.08839323 -0.35141698 -0.21123974 0.7471209 -0.897904 0.594557 0.9335341 -2.106168 -0.86122215 -0.1786362 0.049234744 -1.9855864 -0.29622933 -0.3064382 -1.2955933 0.6044851 1.2587394 -0.5725695 0.3698442 -0.32700732 -0.15138873 1.1625715 -0.18161295
child -0.36962086 -0.0124788815 -0.23034528 -0.95781416 -0.93117315 -0.18805106 0.96124965 -0.39369193 0.5631771 -0.16327655 -0.20810468 -0.12582508 1.1151395 -0.51425457 0.8326677 0.5518123 -1.4833509 -0.53953964 -0.4568437 -0.3857695 -1.4443861 -0.002608166 -0.26166546 -1.0947692 0.27228388 1.0974066 -0.13276984 -0.7167223 -0.2984972 -0.22000879 1.1357555 -0.49056363
worth -1.0001906 -0.044986524 -1.0756352 -1.5516057 -0.52921724 -0.4688185 -0.012789436 -0.23717487 0.5482949 0.42650324 0.8768229 0.37535027 2.0233247 -0.3399631 -0.12166715 0.7117478 -0.88902044 0.9554754 -1.1299149 -0.30661577 -0.8632571 0.17103694 -0.2164071 -1.0717757 -0.19804302 -0.11102292 -0.0035657412 -0.5016595 -1.2803075 -0.14409377 0.8260707 -1.4041904
store -0.5317602 -0.88050777 -0.18796961 -1.8323783 1.3307053 -0.061865237 1.2274052 -0.3205917 0.94049186 -1.124955 1.0070059 -0.4307529 0.96841496 -0.38057223 0.6433085 0.7829473 -0.049560864 -0.12592457 -0.7332525 -0.30688676 -0.13914773 1.0794781 1.3903226 -1.9058211 0.58600163 1.0503069 0.3037684 -0.32983723 -1.1861247 -0.076156095 1.5268617 0.5765422
free -0.55985594 -0.93423945 -0.08531026 -1.6271628 0.66768986 -0.0470771 1.5405477 -0.14456785 1.0537502 -0.9684189 0.9940022 -0.5446054 0.9602676 -0.47201788 0.8200353 0.35696715 -0.39815912 -0.76567113 -0.7723326 -0.13525298 -0.5890185 0.7198593 1.1199813 -1.5153191 0.5302543 1.2899854 0.34413216 -0.662869 -0.5893477 -0.2955954 1.6399758 0.83515906
streaming -0.8828319 -0.7347993 -0.5113829 -1.634077 0.13251433 0.3366326 0.961976 -0.15090679 0.56258786 -0.5176027 0.92314845 0.13074364 1.5242376 -0.10249186 0.7287721 0.052001253 -0.20264494 -0.043609858 -1.1317183 -0.30617136 -0.5017602 0.6771337 0.7636521 -1.1134368 0.33311436 0.93177587 0.33461595 -0.9194826 -0.8115306 -0.43237197 1.018894 0.026114255
reader -0.43167245 -0.08938083 -0.74329644 -1.1023797 -0.6688727 -0.41552266 0.32788128 -0.53488195 0.5590929 0.10022472 0.5447477 0.10526639 1.3938637 -0.5587356 0.43374124 0.46717376 -1.230715 0.15752472 -0.9130629 -0.27850178 -1.2820861 0.11619286 -0.042988673 -0.93932325 0.055597845 0.8036343 -0.089205824 -0.5348883 -0.6495225 -0.27704802 0.9598547 -0.94405234
small -0.73479664 -0.22485857 -0.6507875 -1.6860474 -0.23231336 0.2593218 0.2999201 0.021099787 0.3545664 -0.08506888 1.0624329 0.16554314 1.834533 -0.41460994 0.69915247 0.18026343 -1.0598006 0.27884 -0.8562024 0.19217241 -1.2882867 0.5464845 0.059026234 -0.5383398 -0.47985741 0.88275814 -0.05735653 -1.4457242 -0.04415966 -0.61305714 1.0384457 -1.1276636
question -0.6113407 -0.99988043 -0.1724423 -1.8539509 1.2178044 0.32422644 1.4205673 -0.021677054 0.83851165 -0.73610395 1.0047295 -0.50329727 1.1120709 -0.5271538 0.8222234 0.56415814 -0.6702698 -0.35979918 -0.8450055 -0.035895895 -0.6667521 0.65523124 1.1882175 -1.9475557 0.053665087 1.4682456 0.32767445 -0.79589814 -0.6173506 -0.38583004 1.6205305 0.30729944
enjoy -0.49105355 -0.40603334 -0.32775968 -1.3046122 -0.298596 -0.026820457 0.95525503 -0.39086226 0.5547513 -0.47779033 0.28540418 -0.16641368 0.99029183 -0.47124884 0.8488664 0.38737336 -0.9166185 -0.45974132 -0.6535203 -0.08001914 -0.9620782 0.2575852 0.28885323 -0.97086865 0.4299644 1.2486614 -0.00071550516 -0.64226615 -0.4387367 -0.23871474 1.1003834 0.08413781
wanted -0.3028068 -0.31644294 -0.47512367 -0.87532526 -0.45086947 -0.9173892 0.62441576 -0.11168979 0.7540273 0.030945761 0.31349912 -0.18314286 1.0253656 -0.6415915 0.25394526 0.66260976 -1.2868001 -0.43009895 -0.42787486 0.07437544 -1.1943735 -0.021503307 -0.0051543275 -1.2505513 0.13368048 0.7688225 -0.2682534 0.2400379 -0.5467759 -0.029158017 1.1086211 -0.18468818
amazing -0.65449435 -0.42798725 -0.7974014 -1.457559 -0.783003 -0.13490583 0.3158929 -0.18332906 0.38309506 -0.0053385585 0.66445106 0.20909844 1.7083846 -0.32840905 0.5091475 0.40955725 -0.970752 0.38237846 -1.062001 0.011269496 -1.0849569 0.3675713 0.021288214 -0.7416204 0.057356715 0.7346741 -0.0445698 -0.98385304 -0.71070915 -0.48816288 0.83898276 -0.7553432
internet -0.69530034 -0.80426264 -0.13698995 -1.7315799 0.9762629 0.5051089 1.0962133 -0.012623142 0.6123003 -0.7249171 1.1422045 -0.31624395 1.1641874 -0.19877173 0.8841436 0.11995455 -0.2614589 -0.28373206 -0.96850777 -0.046364404 -0.50203496 0.7822383 1.0241909 -1.1315758 -0.08738395 1.1257358 0.38364065 -1.0298377 -0.38561684 -0.45387608 1.3701307 0.13888648
problem -0.40111285 -0.48551235 -0.47857514 -1.0846409 -0.16127583 -0.34221375 0.53530836 -0.25636518 0.68283373 -0.13089822 0.74388146 -0.15540262 1.1310972 -0.60191244 0.46586666 0.55011714 -0.9778595 0.008479128 -0.714891 0.10964224 -1.040012 0.36293307 0.33711746 -1.0494565 -0.07926079 0.77883345 0.015670173 -0.4518277 -0.5083849 -0.22499177 1.1210192 -0.3109949
getting -0.27569902 -0.44210204 -0.4766054 -1.0667943 0.07379289 -0.6544218 0.6677529 -0.39054716 0.83987266 -0.15123975 0.65909 -0.2501409 1.0294151 -0.6620335 0.36246458 0.66822886 -0.94837576 -0.19608368 -0.68703026 -0.10219106 -0.93159467 0.15006097 0.3554244 -1.3829877 0.014961009 0.8121258 0.16027161 0.0027801173 -0.7639629 0.048657753 1.2646737 -0.2618706
looking -0.5688519 -0.016052969 -0.51575404 -1.5298873 -0.27539754 -0.25944126 0.43720147 -0.438468 0.5227797 0.093779325 0.36332014 0.16133681 1.6302291 -0.38666746 0.4472444 0.46319172 -1.0749165 0.20976087 -0.91940826 -0.50716627 -1.0213401 -0.10874249 -0.32190397 -0.9660122 -0.06403598 0.65921605 0.06211188 -0.6359726 -0.87935627 -0.045973986 1.0059623 -1.1521527
google -0.72490793 -0.85565025 -0.24198556 -1.9349805 1.3023698 0.032553047 1.2286205 -0.2974663 0.99127924 -1.114785 0.9972639 -0.59994555 1.1177374 -0.35240582 0.7121575 0.8324696 -0.12820438 -0.18157084 -0.88394684 -0.2416835 -0.30546126 1.1110282 1.42087 -2.0259495 0.35430402 1.2953235 0.41233882 -0.4629104 -1.0143185 -0.2189463 1.5316522 0.42590126
keep -0.37517852 -0.5870912 -0.27270335 -1.1542455 0.085151896 -0.34073868 0.7822585 -0.24154332 0.747908 -0.2480129 0.7024776 -0.27672818 1.0546557 -0.702766 0.6109296 0.6023286 -1.0223993 -0.21437815 -0.645207 0.0870927 -1.1014998 0.39769885 0.48453173 -1.3001716 -0.009004515 1.0101082 0.018092604 -0.4280091 -0.46628058 -0.25508282 1.2708653 -0.078032464
every 0.044331335 -0.42034072 -0.08390373 -0.6668709 -0.17574601 -0.6316274 0.5783836 -0.32884887 0.9025115 -0.11685807 0.53398263 -0.3313968 0.8260449 -1.0305909 0.31939825 0.79647446 -1.3393972 -0.300314 -0.7424703 0.2307541 -1.2371316 0.3073146 0.5055295 -1.2652974 0.102166735 0.85020113 0.049094543 -0.20805338 -0.48276877 -0.31024125 1.3032804 -0.13862772
phone -0.48289174 -0.6139403 -0.4163175 -1.4912052 0.6927722 0.04344129 0.66049045 -0.16578759 0.72175777 -0.4916121 1.0796785 -0.4729659 1.023429 -0.5213758 0.45725232 0.32268837 -0.4448672 -0.0063427235 -0.7750266 0.05225417 -0.65202135 0.73168343 0.77070665 -1.1507447 -0.25221193 0.8498077 0.28993237 -0.57880896 -0.51950616 -0.21181114 1.176484 -0.051984143
smart -0.80725753 -0.2502911 -0.63364536 -1.6646087 0.32673457 -0.15266499 0.58797604 -0.3483213 0.7705739 -0.3070029 1.0887991 -0.3665229 1.4454949 -0.36693895 0.54101735 0.4593204 -0.6184602 -0.09170345 -0.8586504 -0.11114622 -0.8729572 0.80516875 0.3662384 -1.2649806 -0.54531384 0.9460063 0.17340106 -0.72961015 -0.7389311 -0.08666098 1.2503409 -0.43032438
since -0.21293503 -0.39703658 -0.5802368 -0.7241895 -0.5550089 -1.1996194 0.6359892 -0.3704128 0.98902714 0.08772164 0.45582038 -0.26429945 0.93652296 -0.78543824 0.32171905 0.79432476 -1.3137485 -0.3815379 -0.43253803 0.05837305 -1.300484 0.05607473 0.08695732 -1.3607122 0.29357496 0.7573392 -0.19545361 0.37164313 -0.7845986 0.11817734 1.2268593 -0.13015074
weather -0.6036576 -1.2527182 0.13168508 -2.0006237 1.5861858 0.56774765 1.9404198 -0.035439357 1.0747845 -1.2750748 1.2431806 -0.7008129 0.94084924 -0.6173295 1.3584592 0.4756411 -0.5694749 -0.82697195 -0.80042434 0.13297111 -0.7291341 0.8254465 1.6291351 -2.0414696 0.09062495 1.8785713 0.4874273 -0.94380474 -0.38841966 -0.49771866 1.9796047 0.8964633
say -0.55068225 -0.39560708 -0.6667514 -1.3103473 -0.02534626 -0.53499985 0.43476784 -0.2368398 0.6185418 0.042978145 0.7505639 -0.07510491 1.3342351 -0.58866554 0.24413306 0.6815653 -0.9437264 0.30141088 -0.9113376 -0.13665369 -0.87092334 0.27943012 0.30074087 -1.3091861 0.062039886 0.72826797 0.0133738825 -0.24034102 -0.8856073 -0.20602548 1.0597419 -0.5677568
ask -0.5945355 -0.88683057 -0.13680333 -1.786427 1.0368706 0.20011653 1.3218133 -0.008806349 0.7187176 -0.7698836 0.89939874 -0.43468264 1.0878767 -0.50866973 0.85077417 0.5889874 -0.6283746 -0.3920115 -0.7792247 0.06405038 -0.67797726 0.66834307 1.1681701 -1.8343238 0.066632144 1.4658313 0.33879295 -0.67667145 -0.5467267 -0.3591246 1.5393162 0.2715887
long 0.13999274 -1.0729872 -0.33222616 -0.85283154 -0.68025136 -0.008958751 0.12331505 -0.6110834 0.7225558 0.15070605 1.3484789 -0.11680696 1.0812057 -1.0473323 0.5040206 0.5295967 -1.4302485 0.76170665 -1.3421751 0.8936503 -1.3549303 0.7809734 0.8725098 -0.46989685 -0.3272228 0.640881 0.05350143 -1.2845899 -0.22794046 -0.8602855 1.3541628 -0.62103987
back -0.3383099 -0.42173526 -0.56149817 -1.0969565 0.1618911 -0.738933 0.33043855 -0.2214563 0.88621545 -0.01891573 1.0373207 -0.28321216 1.180253 -0.7605713 0.23967469 0.57867014 -1.0296097 0.033902 -0.60597956 0.1713402 -1.1981663 0.4288681 0.34636006 -1.1934431 -0.354636 0.6538831 0.010980023 -0.15367495 -0.59136105 -0.1191603 1.2606063 -0.48719978
download -0.5276185 -0.7168268 -0.014674415 -1.8451402 0.9751175 0.41686806 1.5587296 -0.28553933 0.68739337 -1.2028407 0.9489885 -0.4817187 0.89020556 -0.43809915 1.165562 0.20145506 -0.40550822 -0.7043469 -0.7367831 -0.14732476 -0.4977549 0.7485031 1.1213443 -1.3085173 0.31045464 1.6339098 0.3278805 -1.0191127 -0.25730926 -0.37894064 1.6161693 0.7101065
issue -0.44461736 -0.48534957 -0.6020888 -1.1948671 -0.11993907 -0.3944864 0.42867216 -0.27936056 0.6975801 -0.0408525 0.90951043 -0.12015059 1.269814 -0.58703285 0.43215021 0.59920037 -0.9514627 0.1984381 -0.79442537 0.086183846 -1.0182214 0.4667928 0.3388216 -1.1027819 -0.16502137 0.75781554 0.033451997 -0.4364018 -0.65489334 -0.19812785 1.1137248 -0.45790914
two -0.18223526 -0.24201812 -0.7211459 -0.42171472 -1.5518634 -1.4495425 0.6895526 -0.3777011 1.0724484 0.2576393 -0.105219334 -0.195489 0.99848443 -0.97862715 0.39470455 1.0887904 -2.0888233 -0.59881055 -0.33464336 -0.022599822 -2.013107 -0.1952117 -0.27581307 -1.4522364 0.36705166 0.9010019 -0.48406807 0.41486147 -0.59381735 -0.015418214 1.313036 -0.230026
playing -0.4851553 -1.0871216 -0.016655589 -1.6200942 0.14265066 0.7056089 1.8187491 -0.1425601 0.61757636 -0.92522025 0.5175739 -0.24167041 0.7829751 -0.30300084 1.4638039 -0.0031418877 -0.7676317 -0.86691415 -0.9886082 0.26436195 -0.8965741 0.39445564 1.0337918 -1.2862402 0.42324606 1.6937618 0.32766384 -0.8989049 -0.15834445 -0.61259997 1.4300233 1.0298737
another -0.24654502 -0.14431192 -0.5066042 -0.78798026 -0.55169535 -1.395948 0.47042456 -0.3612096 0.8972118 0.35853592 0.23031728 0.007511411 1.1112577 -0.7375006 0.02691535 0.964253 -1.4209056 0.02368261 -0.501538 -0.2915251 -1.3467989 -0.36851245 -0.2762882 -1.3995453 0.24014263 0.32861158 -0.21336114 0.5163985 -1.1730045 0.17716041 1.203249 -0.71966743
find -0.48084208 -0.5486282 -0.39337954 -1.4657731 0.47822243 -0.25513345 0.6867199 -0.2388212 0.72689897 -0.40913814 0.9770182 -0.29874164 1.1889743 -0.54990983 0.5045238 0.45954892 -0.7165821 -0.15904467 -0.70763427 -0.024361411 -0.759704 0.51357424 0.6498851 -1.2889236 -0.032328688 1.0645273 0.15878254 -0.43562663 -0.54725814 -0.19138135 1.2769452 -0.121367976
highly 0.28724483 0.3198572 -0.71002024 -1.610034 -0.38388306 0.31535125 0.427189 -1.8119804 0.0477708 0.09334764 -0.14604181 0.70073825 2.0519757 -0.3023753 0.8378824 0.9999209 -1.1502248 0.9659763 -1.8443577 -1.9017023 -0.6521381 -0.77929795 -0.85039115 -1.0813893 -0.15393971 0.9474744 0.9388221 -1.253198 -1.6586384 0.56824684 1.4167116 -1.949538
user -0.30310544 0.059145845 -0.24671008 -1.2714237 -0.9203194 -0.3094265 0.8987205 -0.2684791 0.71117425 -0.124359496 0.2833704 -0.4120955 1.327806 -0.72615045 1.0747428 -0.019787634 -1.3461239 -0.35130516 -0.6322616 -0.23076439 -1.4478078 -0.03062212 -0.8166691 -0.69695413 -0.45498627 0.61163175 0.26861715 -1.0728399 -0.43740103 0.425307 0.97912925 -1.0382972
access -0.56724805 -0.7355437 -0.18913156 -1.813321 0.9125163 0.3184531 1.4017539 -0.15180643 0.7816442 -1.0096582 1.0565925 -0.44329855 1.0021425 -0.31342113 1.098414 0.21286587 -0.24118562 -0.56408197 -0.6781684 -0.22245635 -0.42385513 0.7067206 1.0262238 -1.3068054 0.33216602 1.4182405 0.36715084 -0.987766 -0.45025262 -0.26571932 1.5160688 0.63491076
something -0.4763725 -0.41965768 -0.48470482 -1.2868912 0.419214 -0.42218408 0.7338292 -0.24576247 0.7821213 -0.21529539 0.751284 -0.33786836 1.1038343 -0.68433124 0.36585474 0.5714329 -0.897424 -0.13166867 -0.80996317 -0.14480732 -0.9625118 0.2685378 0.44179752 -1.3703797 -0.025079817 0.94389224 0.094901584 -0.23154901 -0.68515325 -0.079492934 1.3680482 -0.40547565
pretty -0.6767058 -0.4005337 -0.693419 -1.5062104 -0.40597337 0.20298995 0.16195332 -0.22640292 0.29115358 0.0063967714 0.9942753 0.2312482 1.6859425 -0.27701315 0.60682565 0.3539617 -0.9159679 0.4899978 -1.0453554 0.021217361 -1.017477 0.64178705 0.2718096 -0.76899326 -0.2403801 0.80065614 0.06406288 -1.2161005 -0.3313375 -0.61688185 0.82556814 -0.93596464
house -0.5158487 -0.21946552 -0.3978883 -1.3383279 -0.0027444132 -0.3171054 0.74071544 -0.2547719 0.77151877 -0.2194285 0.6600177 -0.26153642 1.1935476 -0.6062283 0.55753326 0.48304394 -1.0340902 -0.19390658 -0.6303109 -0.110863715 -1.1430755 0.31734478 0.21282163 -1.1482099 -0.13952392 0.9229795 0.07395074 -0.5466006 -0.5317352 -0.20779538 1.2774563 -0.39744782
enough -0.55946714 -0.43314955 -0.43268883 -1.4744198 -0.056505367 0.27760655 0.48246202 -0.02012545 0.41270575 -0.1971127 1.0027735 0.0106935045 1.5170285 -0.37993255 0.7074378 0.25740233 -0.8954084 0.1438143 -0.8474541 0.089343205 -1.0523025 0.6106358 0.26574558 -0.7051304 -0.34243372 0.9103103 0.16173524 -1.1731044 -0.109714456 -0.5528882 1.0957385 -0.7023847
friend 0.027855966 0.34852058 -0.6048845 -0.828406 -1.1076704 -0.8322996 0.59409475 -1.0089023 0.64754623 0.3553651 -0.489804 0.33603188 1.351568 -0.710788 0.56584775 1.0630283 -1.735035 0.04202 -0.74218327 -1.0193926 -1.5282574 -0.85195297 -0.9618343 -1.267018 0.4012707 0.799519 -0.081586234 -0.105128594 -1.1765983 0.37452033 1.2474685 -1.0944136
turn -0.6770821 -0.49722385 -0.45701438 -1.695002 0.92918885 0.077434584 0.5979207 -0.081548795 0.7660793 -0.5969727 1.4260443 -0.55651444 1.232901 -0.55848247 0.61119664 0.2709095 -0.623053 -0.05582653 -0.78545564 0.2137261 -0.8844623 0.87551796 0.8170432 -1.1354196 -0.6844625 0.97270274 0.29790422 -0.88846934 -0.30538833 -0.38809028 1.4028116 -0.3372368
right -0.57012856 -0.18955763 -0.45917907 -1.261928 -0.39801237 -0.27973428 0.45130518 0.063479915 0.5055457 -0.0066060633 0.60920763 -0.0062529584 1.5151044 -0.42626268 0.5693559 0.3583942 -1.0842522 -0.2021977 -0.47438318 0.17450374 -1.2023697 0.2996393 -0.08311203 -0.8010438 -0.12540965 0.7717549 -0.17224714 -0.71485907 -0.22060332 -0.24787903 1.0530828 -0.73300266
around -0.5000518 -0.32826173 -0.3700225 -1.4178371 -0.010609333 -0.06316721 0.66102976 -0.22447197 0.5998487 -0.2508941 0.83511823 -0.13895397 1.3634167 -0.46724114 0.6379356 0.3661066 -0.95374125 -0.1720396 -0.6639803 -0.06265694 -1.0717784 0.4796214 0.3493893 -0.9739956 -0.11101289 0.97512716 0.043776285 -0.8760568 -0.39373034 -0.36452645 1.1838502 -0.4983043
simple -0.6686932 -0.0657231 -0.0026501908 -1.6358657 -0.2114308 0.33271348 0.7974835 -0.18315983 0.41244188 -0.48362324 0.45623556 -0.2632399 1.458886 -0.33225662 0.8095945 0.106426835 -0.91138035 -0.4401855 -0.65812874 -0.13820031 -1.0258244 0.37464398 -0.016172294 -0.66057026 0.0016358295 1.047449 0.19913775 -1.3189923 -0.038770612 -0.45597628 1.2497603 -0.7031763
netflix -0.6828854 -1.2299105 -0.29483658 -1.7417549 0.8656141 0.37348506 1.6966387 0.04536334 0.91736674 -1.0768852 1.1303958 -0.46111915 1.0637877 -0.2881613 1.3049701 0.1668574 -0.25480342 -0.86878353 -1.0014579 -0.1610167 -0.5478664 0.84399164 1.3882688 -1.4635602 0.50908864 1.4904901 0.44502482 -0.8530469 -0.5399919 -0.4083028 1.5805719 0.98374814
know -0.48385346 -0.48038855 -0.43324688 -1.2520417 0.25168952 -0.5239801 0.6070455 -0.22998364 0.71789205 -0.13054448 0.6884612 -0.2768441 1.0611811 -0.6216984 0.27969414 0.64029884 -0.80727226 0.0027850983 -0.7511747 -0.08030996 -0.81496865 0.26895666 0.44594312 -1.3622217 0.059140686 0.81064576 0.08570849 -0.15001969 -0.81351125 -0.07434642 1.1569768 -0.26701632
definitely -0.18263179 0.1384487 -0.7328306 -1.5301427 -0.31561688 -0.19399832 0.30314317 -1.1913767 0.3698423 0.22448257 0.15360229 0.46445456 1.7491353 -0.44304034 0.39990532 0.87598175 -0.97078735 0.9355637 -1.4878849 -1.2784269 -0.80469173 -0.4838201 -0.5428537 -1.1132331 -0.03392771 0.55306476 0.5040182 -0.69064736 -1.6438437 0.32315722 1.090401 -1.5817434
show -0.56357926 -1.1783351 -0.22978787 -1.3906077 0.8117375 0.35279626 1.5954759 -0.121221215 0.8791847 -0.9789195 0.8355634 -0.42013866 0.8231096 -0.46383736 1.1302123 0.16485421 -0.40914157 -0.8973029 -0.97410774 -0.18746272 -0.64958394 0.6887523 1.4058781 -1.4441801 0.42609358 1.5388774 0.4118797 -0.60211325 -0.5482313 -0.39692515 1.4811362 0.9916046
give -0.43937975 -0.48835608 -0.4020832 -1.2186544 0.14528377 -0.4214572 0.80326736 -0.2211917 0.85997605 -0.2748869 0.61764497 -0.22816543 1.103371 -0.6259055 0.570915 0.6055364 -0.8994558 -0.19270143 -0.63566285 -0.16827859 -1.0034004 0.21402779 0.35883284 -1.3569558 0.12357067 0.9215306 0.09972246 -0.34035566 -0.6732884 -0.087616675 1.2761456 -0.09125351
think -0.50686496 -0.22164486 -0.6643766 -1.1586128 -0.39935717 -0.5948262 0.33152407 -0.43184045 0.65642 0.10999036 0.43837196 0.03900113 1.310021 -0.59150904 0.22994274 0.60621595 -1.0032698 0.25269347 -0.8257802 -0.2959762 -1.077326 0.048252985 -0.033712212 -1.1330501 0.11300724 0.584557 -0.057335727 -0.15963915 -0.923811 -0.05030702 0.9082366 -0.73988587
always -0.41883537 -0.50943005 -0.5258884 -1.1692495 -0.02254732 -0.47063243 0.72325486 -0.23758928 0.7748103 -0.1758934 0.6893294 -0.16556628 1.1424447 -0.5913783 0.4660079 0.5664616 -0.99020207 -0.1445091 -0.749872 -0.05152517 -1.0056145 0.2928373 0.3788873 -1.2882149 0.113496915 0.92173713 0.014760757 -0.28794655 -0.6919555 -0.197237 1.1963577 -0.26362377
option -0.63020676 -0.47528723 -0.45484903 -1.4718927 0.17088936 -0.052044854 0.70154077 -0.29565972 0.6299977 -0.36604178 0.85216427 -0.16893099 1.2373028 -0.3751958 0.5370498 0.27378717 -0.5533005 -0.1008672 -0.7569587 -0.099200144 -0.79298264 0.57148725 0.48182088 -1.0819663 0.057859447 0.9661379 0.15252124 -0.6480422 -0.6022716 -0.2578367 1.0333564 -0.22727127
loved -0.21343239 -0.010052451 -0.5440685 -0.6589704 -1.3986294 -1.2220381 0.62336177 -0.45047364 0.90865356 0.2532407 -0.18529443 -0.03732364 1.2035596 -0.9026233 0.5255831 0.9492774 -2.0365887 -0.58192456 -0.30876145 -0.14864881 -1.9321866 -0.29927498 -0.5562651 -1.2601291 0.36488998 0.9834327 -0.46014014 0.14161848 -0.54145586 0.02119245 1.2451844 -0.5181062
case -0.35592738 -0.31384182 -0.63625705 -1.110608 -0.3279043 -0.57355344 0.47791743 -0.3431488 0.7516734 0.0425462 0.64722496 -0.09711152 1.2725838 -0.66478306 0.436712 0.64173234 -1.1787533 0.024325145 -0.67862594 -0.050993424 -1.2581778 0.26223534 0.114732295 -1.217823 -0.1429654 0.7979184 -0.014381761 -0.31414637 -0.6630139 -0.12165099 1.1301582 -0.57327443
picture -0.74136746 -0.5745792 -0.80753386 -1.5067388 -0.5024169 0.7172458 0.13916263 0.026438246 0.028450664 -0.093844764 1.021465 0.5733052 1.8462697 -0.03699701 0.777241 0.0053996663 -0.66089165 0.64184725 -1.1822605 0.11679477 -0.9842774 0.8854139 0.3137686 -0.49838546 -0.25666848 0.8965678 0.12695144 -1.5851481 -0.30717564 -0.90196645 0.51958495 -0.8808228
memory -0.6958806 -0.6490628 -0.6784822 -1.5516855 0.56859785 -0.1378536 0.58989644 -0.23862894 0.6221731 -0.31624004 1.3761435 0.01431979 1.390367 -0.46903998 0.47289175 0.49600032 -0.5298847 0.43389222 -0.93599516 0.06743274 -0.6239559 0.60909474 0.5702431 -1.0096903 -0.19406465 1.0171193 0.29868484 -0.6645335 -0.5306942 -0.18406951 0.9117609 -0.38791755
apple -0.47897968 -0.56520826 -0.80433184 -1.2944845 -0.008914031 -0.72883904 0.5927488 -0.317165 0.9079672 -0.25325656 0.7829785 -0.38702974 1.1312647 -0.6022164 0.22838284 0.56837344 -0.749865 -0.1711933 -0.7647706 -0.15850902 -0.89397985 0.36517814 0.5299796 -1.3842167 0.059729982 0.8405239 0.05755947 0.16277142 -1.025578 0.042887602 1.0618021 -0.09139346
wish -0.5447249 -0.37120003 -0.54454654 -1.3232033 0.04258958 -0.2420571 0.34176916 -0.34333476 0.6615534 -0.091248214 0.73004425 -0.08364509 1.2424476 -0.5550839 0.32523218 0.46523154 -0.7187875 0.31299856 -0.829182 -0.1040634 -0.8590632 0.36958766 0.31361738 -1.0046896 -0.04601478 0.64389825 0.040243607 -0.4235304 -0.75586444 -0.2312649 0.9698931 -0.5341148
last 0.2189887 -1.1852111 -0.8037666 -0.24051322 -1.618206 -0.45576817 -0.061343547 -0.36547837 1.295645 0.18533176 0.8865969 -0.14845544 1.0838457 -1.246344 -0.15128453 0.57313216 -1.7917762 0.7960398 -1.3491656 0.96121746 -1.8980207 0.30972117 0.61934716 -0.53736913 -0.54036677 0.007527607 -0.32581177 -0.8050462 -0.19669363 -0.8243828 1.1497979 -0.3884916
overall -0.73625 -0.26439402 -0.7542167 -1.419745 -0.6224041 -0.096611515 0.1923655 -0.30138448 0.3963107 0.18370177 0.68451613 0.40264097 1.8343263 -0.29874775 0.40469053 0.39186114 -0.92282164 0.6286855 -1.106827 -0.2013246 -1.0255691 0.3002003 -0.059431124 -0.8636226 -0.090546615 0.48608187 0.021653673 -0.85303825 -0.8384088 -0.41716903 0.74330616 -1.1182396
us -0.2199997 -0.43238404 -0.17439875 -0.7328386 -0.5035302 -0.53270507 1.2012882 -0.32369176 0.83759856 -0.42098382 0.021287106 -0.40766835 0.61743313 -0.738087 0.8360991 0.6609169 -1.4155859 -0.9441767 -0.33957845 0.11128786 -1.3572412 0.118020415 0.34945244 -1.3609371 0.4893993 1.4059925 -0.2054221 -0.17330538 -0.19332069 -0.16503835 1.3622206 0.49460393
wifi -0.56644 -0.599058 -0.45288673 -1.5156138 0.49974495 -0.037373394 0.5382637 -0.17770079 0.6567434 -0.32399926 1.2933338 -0.25605154 1.2852237 -0.46291393 0.59337795 0.44452256 -0.56015074 0.13582003 -0.8692184 0.10540882 -0.7306348 0.8083943 0.6918079 -1.0777485 -0.30904505 0.8555271 0.25902006 -0.81806517 -0.45722595 -0.32735947 1.2712996 -0.35320705
available -0.5948463 -0.6586919 -0.37841016 -1.7163658 0.6243405 -0.15562893 1.0186805 -0.22872716 0.7980844 -0.66399914 1.0370169 -0.3728201 1.2164112 -0.39844942 0.59391433 0.41885543 -0.35988292 -0.23458502 -0.7539613 -0.11664773 -0.50105524 0.6690023 0.8154694 -1.4377948 0.23232642 1.0506308 0.24685434 -0.50918466 -0.8466078 -0.16427398 1.3090076 0.2276769
come -0.48168424 -0.5084227 -0.50798744 -1.2128241 -0.06588907 -0.31660995 0.58431053 -0.19122764 0.6905962 -0.21169683 0.7442233 -0.1431963 1.2023152 -0.49324587 0.41970497 0.5233685 -0.8385439 0.01418606 -0.7436127 -0.04650611 -0.91844666 0.40181527 0.37147883 -1.1508061 0.060943868 0.81084985 0.08581145 -0.49049997 -0.6195728 -0.22810815 1.1058685 -0.23696078
charge -0.08893411 -0.6494283 -0.5393082 -0.79655695 -0.29189345 -0.37651062 -0.09558501 -0.5440349 0.6658095 0.17444152 1.178706 -0.14130154 0.9696612 -0.90654624 0.29374638 0.6173214 -1.1413728 0.6469151 -1.0010965 0.4707628 -1.1608096 0.5538538 0.49067438 -0.6170613 -0.33439857 0.5529978 0.04976652 -0.7072009 -0.32888365 -0.4604759 1.0991231 -0.7434447
add -0.6528245 -0.53329957 -0.4189462 -1.6494083 0.6077638 -0.06912194 0.8174872 -0.2120914 0.6993583 -0.5414494 1.1767284 -0.21720485 1.2988054 -0.466888 0.595927 0.4228174 -0.53397703 0.09000333 -0.77967364 -0.066053554 -0.66024494 0.6170145 0.60382235 -1.1774309 -0.12125672 1.0536811 0.23714699 -0.7394835 -0.55576926 -0.2106119 1.1547742 -0.1211869
room -0.46828645 -0.36638013 -0.5487854 -1.1937863 -0.1575654 -0.38315353 0.66404575 -0.15753002 0.7334229 -0.12622856 0.7685724 -0.09161247 1.2148505 -0.61761427 0.58949023 0.5818003 -1.1337765 -0.21822922 -0.60702956 0.017711023 -1.257945 0.35826713 0.25241703 -1.1959536 -0.07210205 0.8960115 -0.022815334 -0.448237 -0.4337563 -0.23093979 1.2909604 -0.35795087
learning -0.4319709 -0.4629204 -0.2514182 -1.2322199 -0.22926442 -0.23306312 0.9519396 -0.39347926 0.58902186 -0.38435757 0.4547186 -0.33673438 1.0556111 -0.49387494 0.6194121 0.40906975 -1.0498356 -0.512832 -0.6213946 0.21849637 -1.1187978 0.3559276 0.463308 -1.2671547 0.23361503 1.2322247 0.014410009 -0.4751382 -0.4169677 -0.32464778 1.2195297 -0.03669208
look -0.6105728 -0.46655214 -0.5914456 -1.4600698 0.16430637 0.01587423 0.5444572 -0.26277238 0.56133056 -0.29457566 0.97192305 -0.06713637 1.3370652 -0.42522612 0.587076 0.33427206 -0.7250683 0.11495051 -0.9071066 -0.070597365 -0.8915927 0.5955605 0.5234233 -1.077873 -0.1098815 0.9908215 0.1473571 -0.7357885 -0.5089645 -0.39190814 1.0239072 -0.43087694
sale -0.30252105 -0.018568529 -0.66737187 -0.6824955 -1.1729891 -1.2656554 0.28124806 -0.24601105 0.8336524 0.59376043 0.17814656 0.23117228 1.5372294 -0.60242045 0.13126577 0.92619336 -1.6614889 -0.0033723167 -0.46055195 -0.18634209 -1.6114964 -0.19090854 -0.4308709 -1.277141 0.105122775 0.24117628 -0.4649168 0.39277834 -1.1068572 0.035291247 0.95089996 -0.9827206
see -0.42950118 -0.3995594 -0.47305974 -1.215593 0.20365249 -0.36871025 0.48711944 -0.23465458 0.72367644 -0.17044805 0.85330236 -0.22347283 1.1384394 -0.6039865 0.4215189 0.46134508 -0.80372757 -0.012647678 -0.65965855 -0.006793403 -0.951317 0.41559774 0.37352434 -1.0904716 -0.13130865 0.8094476 0.05085918 -0.37863275 -0.54979 -0.16053274 1.1398137 -0.2980668
needed -0.43262318 -0.26232064 -0.5215828 -1.097689 -0.3109653 -0.6612557 0.5625206 -0.23582587 0.70087373 -0.059474703 0.5090679 -0.1782398 1.1810807 -0.58829397 0.37549645 0.5831191 -1.1335138 -0.24479173 -0.56015295 -0.02411522 -1.0976607 0.16411 0.038136408 -1.1599226 -0.012112891 0.83330894 -0.08943351 -0.16415752 -0.60738754 -0.073516846 1.1363546 -0.40142635
etc -0.5944481 -0.8575272 -0.23369826 -1.7241756 0.90775394 0.39645806 1.2287897 -0.08694119 0.7685702 -0.81696683 1.0915787 -0.3518809 1.140302 -0.4217192 0.94804966 0.22062372 -0.41370904 -0.3412756 -0.9380502 -0.041885808 -0.6302624 0.6974017 1.0464507 -1.326333 0.042508356 1.2182091 0.4009744 -0.9113657 -0.5122322 -0.3635806 1.4610995 0.33855444
list -0.67451876 -0.915847 -0.11942164 -1.9053952 1.1111965 0.13718012 1.3154317 -0.046209697 0.8915559 -0.8499718 1.2782835 -0.42046338 1.2975589 -0.50967914 0.8948535 0.45420364 -0.5520663 -0.21220717 -0.8175551 -0.021453826 -0.6462178 0.83818465 1.1159554 -1.597628 -0.12013107 1.3587166 0.40869376 -0.86859614 -0.5954973 -0.3413611 1.5372148 0.3777225
faster -0.47305936 -0.5276755 -1.1378568 -1.1178856 -0.3702781 -0.88370574 0.011184818 -0.57033557 0.7285409 0.028684992 1.0232974 -0.1827493 1.1327233 -0.7722756 0.03500838 0.61642724 -0.96568245 0.28944176 -0.8855665 0.081363305 -1.0724809 0.47638112 0.5302941 -1.0286801 -0.16024543 0.8652046 0.011645866 0.10113821 -0.8606397 -0.13872458 0.81318235 -0.49767718
easier -0.35230544 -0.48711714 -0.4394929 -1.3097478 -0.0068188203 -0.21858801 0.06458913 -0.5004174 0.57351404 -0.13275146 1.2357025 -0.27307993 1.1486422 -0.62596345 0.4387703 0.2396529 -0.8082709 0.057596665 -0.9427359 0.20345537 -0.9829209 0.6918612 0.6004434 -0.5189249 -0.08289584 0.9927302 0.24168392 -0.8367413 -0.2157839 -0.47168875 1.1847644 -0.66656566
setup -0.5324699 0.27507088 -0.107041664 -1.267152 -0.30596325 0.33343843 0.5635974 -0.2721993 0.23027757 -0.3690968 0.42127302 0.029480765 1.260421 -0.23914655 1.1053948 0.32773212 -1.1484082 -0.27072716 -0.22889204 -0.24551947 -1.1674093 0.24410105 -0.20280787 -0.43388158 -0.2925209 1.2959045 -0.19738889 -1.4163961 0.42953804 -0.33580038 1.0804561 -0.65610194
black -0.28987825 -0.034271803 -0.7281594 -0.32434878 -1.6145189 -1.3711251 0.071777366 -0.28740457 1.1482614 0.8669904 0.21791495 0.24486417 1.87513 -0.6977047 0.3685287 0.9863421 -2.2832987 -0.20874786 -0.23315667 -0.19590417 -2.2433183 -0.022759043 -0.38163143 -1.5645207 -0.089911275 0.12171032 -0.7804143 0.5950677 -1.1349012 -0.15538421 0.8512411 -1.1213671
dot -0.28252187 -0.17724141 -0.78094286 -0.76270247 -1.1050338 -1.0130656 0.4087375 -0.28458372 0.70040625 0.28281945 0.2566577 0.07830961 1.1595274 -0.65326756 0.40221512 0.82290983 -1.4257238 -0.13306306 -0.4811438 -0.057286467 -1.4159375 -0.000928221 -0.22684324 -1.1155225 0.21891207 0.6862975 -0.2528964 0.046073884 -0.68166935 -0.075553805 0.9470418 -0.5010319
android -0.65383476 -0.53178805 -0.540335 -1.590839 0.38853607 -0.25845417 0.6912816 -0.2649731 0.7114156 -0.45110127 0.98574376 -0.31102914 1.2503871 -0.4264722 0.43730453 0.46284026 -0.4643948 -0.0015908076 -0.8209635 -0.13737941 -0.61922026 0.62333924 0.62751013 -1.3367724 0.022139294 0.877833 0.16759959 -0.39060965 -0.8683976 -0.10754665 1.0959821 -0.1348085
service -0.5487637 -0.54942816 -0.51163054 -1.2872974 -0.031213239 -0.3399742 0.8563736 -0.17448828 0.81224334 -0.29210237 0.7122132 -0.051605158 1.3116492 -0.35138872 0.5644734 0.47128806 -0.6267699 -0.1610325 -0.8002573 -0.27297744 -0.73901254 0.35815188 0.44778588 -1.294295 0.31811565 0.7715723 0.15455392 -0.33878005 -0.9031095 -0.116481684 1.145427 -0.017117646
anything -0.4801034 -0.60523665 -0.34046122 -1.4180706 0.57165766 -0.067892596 0.8493093 -0.0867157 0.62502736 -0.3760356 0.82112396 -0.23774375 1.1237147 -0.41910508 0.49498466 0.46473035 -0.6034855 -0.06453139 -0.84220254 -0.1429797 -0.6011727 0.44518188 0.6670926 -1.344159 0.01023072 0.9364521 0.24151373 -0.47434005 -0.6768001 -0.1955308 1.229208 -0.11028708
friendly -0.45997608 -0.24359344 -0.115433104 -1.56203 -1.0736276 0.29189578 0.4345094 -0.074670665 0.23909795 0.034016572 0.24315876 -0.4034886 1.420951 -0.8157009 0.2693278 -0.08481277 -1.2262763 -0.58031005 -0.02950848 -0.6560656 -1.7142241 0.35244477 -0.53227276 -0.91937184 -0.13923305 0.64521056 -0.12591375 -0.8447251 -0.50015116 0.06556089 0.68219066 -1.1724116
value -0.7518418 -0.13672875 -0.7748136 -1.2446344 -0.96526253 -0.09321567 0.1856918 -0.2920586 0.2968352 0.27773577 0.52322716 0.52770704 1.8950733 -0.14387737 0.40894818 0.43654263 -1.0123663 0.5889356 -1.0503205 -0.37165743 -1.065936 0.26935592 -0.147999 -0.84191734 0.043155752 0.45451558 -0.061140116 -0.8779542 -0.7492254 -0.44515637 0.59478 -1.1363345
especially -0.5859834 -0.30854768 -0.53689516 -1.4122089 -0.38367337 -0.19168587 0.71811473 -0.25180838 0.6152701 -0.19541048 0.63066775 0.025104504 1.4863772 -0.365829 0.6564151 0.3837502 -0.8720505 -0.065906405 -0.7652988 -0.2424912 -0.99457157 0.29800975 0.14155762 -1.0282446 0.20359713 0.85871613 0.051748656 -0.73089975 -0.68639135 -0.22478622 1.0563778 -0.40972006
version -0.36096686 -0.40323943 -0.8861623 -0.9285379 -0.50156623 -1.1545281 0.33004397 -0.44434074 0.8857264 0.043015204 0.62912714 -0.19957085 1.0696436 -0.7864535 0.13168651 0.7413814 -1.1947179 -0.114205934 -0.5821886 -0.017358797 -1.2664769 0.16410525 0.1817024 -1.3648679 0.081892096 0.8618942 -0.10839132 0.38385198 -0.8880044 0.033116102 0.9834381 -0.36845702
sure -0.44983596 -0.29417 -0.48985514 -1.2535514 -0.014359155 -0.37861687 0.40715903 -0.27461243 0.6916027 -0.03166042 0.6755267 -0.1006552 1.2724977 -0.53150004 0.28480804 0.46749714 -0.8125576 0.14991057 -0.8200599 -0.08990579 -0.88992655 0.2325409 0.18721117 -1.0181199 -0.064960726 0.5983156 0.07862794 -0.39560485 -0.7779638 -0.13250369 1.0173314 -0.6058246
deal -0.49952817 -0.15264557 -0.6619529 -0.8621398 -0.9634226 -0.5642605 0.25018072 -0.22472389 0.58812064 0.39163345 0.39008003 0.40980828 1.6107286 -0.3619107 0.27336958 0.64070094 -1.2471954 0.20884545 -0.7517775 -0.267351 -1.2930014 0.14824256 -0.10961423 -1.1162462 0.11392006 0.39293262 -0.2791285 -0.15941575 -0.88912666 -0.26079917 0.6848084 -0.9226497
help -0.42431545 -0.49103627 -0.280067 -1.2821791 0.06780417 -0.272549 0.77186745 -0.25468108 0.72206074 -0.25646162 0.68617755 -0.27272683 1.1448992 -0.6079263 0.604672 0.52898794 -0.96345496 -0.20775881 -0.69165266 0.01118726 -1.0163351 0.40595376 0.40868267 -1.1969246 0.02235286 0.96675897 0.08147157 -0.54646695 -0.51890594 -0.20211683 1.2821798 -0.22521338
answer -0.5551279 -0.8005683 -0.3223484 -1.6583657 0.81125414 0.027868958 1.0540063 -0.0674278 0.7362081 -0.48122945 0.9641966 -0.35734418 1.1515274 -0.47677943 0.60837245 0.60114974 -0.57534313 -0.17791976 -0.7945266 0.011722677 -0.6092349 0.6262125 0.98968345 -1.715888 -0.057446565 1.1958 0.31223843 -0.47886506 -0.6707387 -0.23995 1.3520664 0.07494075
card -0.54686886 -0.8092536 -0.37862584 -1.5442455 0.91013473 -0.27804267 0.82941455 -0.24820974 0.71027195 -0.5382029 1.5334704 -0.07542409 1.2837026 -0.56402254 0.48924187 0.6393973 -0.32800567 0.2873263 -0.9575582 -0.061536044 -0.49697486 0.474682 0.6575886 -1.0714232 -0.15508091 1.1026106 0.41815397 -0.5784323 -0.56650245 -0.017142314 1.1109647 -0.102825716
absolutely -0.19858891 -0.0007966149 -0.58297753 -0.7078813 -1.310448 -0.8446314 0.7715491 -0.4478117 0.7499262 -0.03177201 -0.28099304 -0.06025656 1.0277705 -0.7148601 0.5359169 0.7403322 -1.7310143 -0.4990961 -0.4663862 -0.21333328 -1.6430504 -0.2956835 -0.39476654 -1.0876033 0.50847375 1.0742792 -0.32234007 -0.13940431 -0.43708447 -0.1379955 1.0125073 -0.3974995
put -0.32097813 -0.41987312 -0.3697542 -1.0862423 -0.15958114 -0.44530848 0.7372154 -0.21650817 0.728936 -0.22673152 0.57322556 -0.23741008 1.0913378 -0.66014665 0.5258214 0.56384265 -1.1066614 -0.2873942 -0.55088246 0.051770918 -1.086141 0.30304486 0.30437446 -1.2021376 0.029446062 0.9905279 -0.017455578 -0.33172143 -0.42025802 -0.19511117 1.2095265 -0.124329984
news -0.5854147 -1.0114487 -0.061153937 -1.6377059 0.9834168 0.32031485 1.4922618 -0.0037639139 0.91415936 -0.9823558 1.038196 -0.4958559 1.0022476 -0.5363031 1.0829511 0.3761849 -0.6339791 -0.6867567 -0.81379294 0.08420501 -0.8038378 0.7204819 1.2282823 -1.5948707 0.087505795 1.4995484 0.39071164 -0.8374043 -0.3224589 -0.42933276 1.6333492 0.5982683
ever -0.39527237 -0.19133848 -0.4913774 -0.9034545 -0.6594148 -1.0096716 0.41615057 -0.3379767 0.7875142 0.30382434 0.28950515 0.20523272 1.3692485 -0.56438255 0.10134539 0.65488714 -1.1308583 0.06553679 -0.62266135 -0.27972853 -1.1038065 -0.1933192 -0.23024124 -1.2872255 0.27165368 0.38816252 -0.23154515 0.20673731 -1.0732133 -0.003392211 1.0139178 -0.76710373
anyone -0.12196362 0.27496216 -0.5508207 -1.580844 -0.105866715 0.26863593 0.495571 -1.3014191 0.22664121 -0.008917402 -0.1027337 0.3895725 1.6280464 -0.37785465 0.639585 0.67798257 -0.8741367 0.7847236 -1.4856144 -1.4967246 -0.6717949 -0.58929783 -0.6181903 -0.9231143 0.040388104 0.7424459 0.5732615 -1.0366491 -1.3948365 0.31471193 1.1537635 -1.5456803
remote -0.59242135 -0.3195431 -0.4415691 -1.3442733 0.111984976 0.09999215 0.42795902 -0.07008746 0.54429084 -0.22636126 0.9426155 -0.2773992 1.2863845 -0.4015571 0.49999732 0.20628451 -0.6790617 0.027183034 -0.65376765 0.1900918 -0.9222125 0.68238467 0.3618393 -0.8477545 -0.51851517 0.7955065 0.12201339 -0.9304266 -0.2912534 -0.32391474 1.0146749 -0.48554206
however -0.56125224 -0.46761912 -0.6880576 -1.3509841 -0.05891807 -0.4547458 0.51198053 -0.26200944 0.7435354 -0.08930934 0.90454227 -0.07519239 1.3873779 -0.5005661 0.41397718 0.5703908 -0.88490033 0.09623221 -0.87557334 -0.056282282 -0.9555661 0.42226365 0.34130895 -1.254651 -0.058042392 0.7999162 0.056716397 -0.37959632 -0.78137267 -0.15353742 1.131406 -0.4498571
watching -0.62560683 -0.9717481 -0.20460096 -1.299854 0.49800283 0.5723012 1.4980322 -0.083869666 0.6629482 -0.9761901 0.6564425 -0.23984832 0.86322993 -0.32804948 1.135862 0.0043229125 -0.40209988 -0.81664544 -0.8944086 -0.14653297 -0.71570116 0.7160676 1.2607113 -1.1874316 0.46837118 1.5663126 0.3722205 -0.87969357 -0.30435574 -0.48224154 1.2974478 0.8288854
second -0.23785134 -0.20036016 -0.71261555 -0.57788473 -1.0052416 -1.3250076 0.5072297 -0.41252166 0.9077976 0.16860124 0.13558869 -0.17035012 0.90500796 -0.77599645 0.18382312 0.819104 -1.5090003 -0.40181693 -0.35600418 -0.06713861 -1.480039 -0.1828119 -0.22628781 -1.2460893 0.29807833 0.7329717 -0.2885432 0.52910763 -0.8017954 0.083083116 1.003731 -0.30976358
going -0.35426 -0.35333183 -0.47121564 -1.0094116 -0.31529668 -0.7196793 0.5736132 -0.22319295 0.80895656 0.0038376423 0.54446024 -0.117133506 1.1950775 -0.59148544 0.32807884 0.63607544 -1.1554434 -0.18939504 -0.5908993 -0.08896698 -1.1703211 0.15695184 0.14735936 -1.276382 0.050844472 0.6941592 -0.066609 -0.067714706 -0.72195804 -0.045157608 1.1603647 -0.38279286
web -0.6833212 -0.8667228 -0.117568985 -1.8229764 0.9873158 0.6268022 1.3048913 -0.059571024 0.6294316 -0.868883 1.0850121 -0.32961127 1.1800169 -0.21071965 1.0699955 8.6557426e-05 -0.3277589 -0.4093776 -0.9931708 -0.08643468 -0.63275933 0.8221468 1.151761 -1.1776167 0.029876811 1.3517439 0.36999568 -1.1838824 -0.3107827 -0.4716153 1.4595915 0.3143966
bit -0.5269662 -0.46615204 -0.6920039 -1.324515 -0.038134012 -0.44523475 0.2948943 -0.1890181 0.7257315 0.0028785868 1.0591238 -0.119773805 1.4242108 -0.56493026 0.32159135 0.53468734 -0.88764733 0.182017 -0.80578524 0.09874823 -1.0379612 0.49519086 0.3415581 -1.1210995 -0.24954525 0.736945 0.037182678 -0.4087477 -0.64967585 -0.21502142 1.0531225 -0.5801092
never -0.3750931 -0.36785895 -0.5251458 -1.0758756 -0.108170085 -0.7561567 0.5914751 -0.37894005 0.86296695 -0.050930552 0.59125656 -0.21054041 1.1417605 -0.73681587 0.31930608 0.70555776 -1.0777177 -0.10107819 -0.7010488 -0.15056966 -1.1308022 0.113174245 0.18439819 -1.2933091 0.12593658 0.7544109 -0.014081345 -0.059875343 -0.8181364 -0.012275129 1.2231885 -0.37300336
hold -0.46679878 -0.40774044 -0.5344127 -1.4537239 -0.03113378 0.08384462 0.34190404 -0.2921727 0.6357321 -0.24027568 1.2148033 -0.11558544 1.410138 -0.64030105 0.6259261 0.32201922 -1.0626544 0.25627497 -0.9320749 0.19529027 -1.2082244 0.62092894 0.45163926 -0.7272127 -0.4284356 0.9358626 0.07323429 -1.2212201 -0.12953438 -0.512309 1.2094284 -0.7172739
page -0.59947544 -0.4496422 -0.6275824 -1.6002542 0.61362225 -0.18632752 0.4351566 -0.19329518 0.7228668 -0.28317878 1.4272507 -0.31480998 1.430381 -0.6206835 0.50059515 0.3697907 -0.6698145 0.08173405 -0.8143997 0.059629444 -0.9903039 0.79005367 0.5360791 -1.1801672 -0.52847856 0.9248893 0.20533904 -0.6637991 -0.46781525 -0.23104401 1.2813976 -0.5304612
hand -0.5269128 -0.44978324 -0.4402921 -1.3931619 0.053303406 -0.14782599 0.5708787 -0.1411564 0.6270723 -0.21922986 1.0351082 -0.1125022 1.3591728 -0.46941465 0.55051816 0.31123984 -0.8253089 -0.047636665 -0.6842333 0.10240212 -0.9566306 0.58436507 0.3663275 -0.9918354 -0.116808064 0.9150799 0.10594092 -0.7146487 -0.36647806 -0.33116826 1.1597264 -0.45543104
member -0.099043995 -0.3315578 -0.46092165 -1.0372835 -0.3146313 -0.78188 1.398038 -0.32878628 1.0509181 -0.39162448 0.41816482 -0.24486119 0.7135224 -0.4453732 0.97424644 0.50940955 -0.4543822 -0.558688 -0.21333563 -0.6429305 -0.7508211 -0.19915454 0.09203493 -1.2581956 1.2562011 0.8068252 0.21094747 -0.21943466 -0.9875651 0.3038399 1.3051778 0.6316904
made -0.4249564 -0.26380914 -0.49587518 -0.9429815 -0.73550916 -0.7442458 0.30749235 -0.30247536 0.6962575 0.23437272 0.5137578 0.14661865 1.4171687 -0.54276335 0.32531178 0.6607586 -1.1719352 0.1871487 -0.7131421 -0.045034956 -1.1545906 0.07292108 -0.09936568 -0.99065226 0.10528293 0.46826273 -0.13008612 -0.23473495 -0.73466057 -0.14889237 1.0125375 -0.6983429
month -0.20815784 -0.49846 -0.5647983 -0.74246407 -0.72827965 -1.0613889 0.5933949 -0.47113675 0.8816425 0.11431559 0.48636055 -0.25172117 0.98478144 -0.8771958 0.42545643 0.76213145 -1.4699802 -0.31640416 -0.49683943 0.13313901 -1.3858379 0.19153081 0.12628557 -1.3361092 0.09295128 0.9050896 -0.16520403 0.16847973 -0.7026667 -0.040739454 1.2615707 -0.26392817
camera -0.6138711 -0.40640864 -0.6603289 -1.2859447 -0.39065328 0.026947279 0.26019055 -0.1911539 0.35231733 -0.023365157 0.8857577 0.15262836 1.4997716 -0.3588158 0.5354833 0.2869261 -0.8381142 0.32073426 -0.91526157 0.05755805 -1.0099154 0.57891095 0.27096754 -0.8198523 -0.15427443 0.8640811 0.06432689 -0.8766229 -0.4031678 -0.51601374 0.7744436 -0.7110143
eye -0.54487944 -0.28189644 -0.5563282 -1.5447494 -0.0026091791 0.07345094 0.40581575 -0.4068695 0.5462149 -0.27470472 1.1082876 -0.13162968 1.4347453 -0.57478374 0.7911713 0.36997893 -1.1292871 0.16238685 -0.8546667 0.047880523 -1.298136 0.56763804 0.37520456 -0.799438 -0.4361788 1.2244508 0.015391828 -1.2212628 -0.09186754 -0.4786184 1.2823724 -0.73139215
already -0.2880863 -0.28237855 -0.5628289 -0.84841937 -0.5812075 -0.8583147 0.65348583 -0.30512953 0.8091286 -0.029771091 0.34834632 -0.14823216 0.99573296 -0.6031185 0.35540998 0.6612353 -1.106611 -0.3276725 -0.464333 -0.15200514 -1.1223985 0.055454917 0.024942195 -1.175375 0.30146474 0.7801032 -0.10667288 0.07579493 -0.7027076 -0.010529852 1.0423702 -0.17592604
thought -0.46723348 0.042355213 -0.61382776 -1.1265206 -0.33497238 -0.7509123 0.1984654 -0.6358971 0.68471766 0.1824324 0.1877426 -0.052763432 1.0939151 -0.8149895 0.10952712 0.62749654 -1.0257679 0.3267539 -0.7875663 -0.4524581 -1.136306 -0.27399823 -0.29429796 -1.0129976 0.1961677 0.5211649 -0.09783445 0.025970187 -1.032726 0.056729212 0.88289666 -0.915266
hd -0.42175314 -0.3446187 -0.958583 -0.7819857 -0.8774244 -0.7362474 0.32131392 -0.34927905 0.52217525 -0.13715231 0.47349268 -0.078614846 0.91677374 -0.5076118 0.20877124 0.42226022 -0.9135841 -0.056863688 -0.61746955 -0.047008876 -0.98471117 0.21458368 0.15301727 -0.7723372 0.24282067 0.85489804 -0.06796677 0.15101856 -0.58763254 -0.11140463 0.5646816 -0.20032884
account -0.5346615 -0.65300435 -0.3088766 -1.431976 0.34745494 -0.19831964 1.2597263 -0.1592709 0.9661457 -0.7929116 0.8901363 -0.40177467 0.9208152 -0.3608933 0.8531732 0.32204896 -0.18583317 -0.66675246 -0.5432499 -0.33490688 -0.47801355 0.5079091 0.6890481 -1.2318889 0.6357904 1.1297957 0.3826596 -0.5695836 -0.70082253 -0.0528693 1.3533306 0.6316803
email -0.5748267 -0.83336407 -0.15127736 -1.7006583 0.9852127 0.4454784 1.3082893 -0.07423811 0.78831595 -0.88616556 1.0986171 -0.42797035 0.9899926 -0.35943916 0.9559214 0.13509744 -0.39386502 -0.55169153 -0.8439647 -0.036325358 -0.58970284 0.7102917 1.1572359 -1.2746476 0.076140225 1.3227683 0.3856495 -0.8822106 -0.33409122 -0.39178297 1.4699 0.42254335
seems -0.4891214 -0.47526935 -0.6896753 -1.1524422 -0.45322928 -0.3048165 0.30788296 -0.28653106 0.62483424 0.039410718 0.8805248 -0.024770241 1.3839636 -0.54657316 0.38924384 0.5194218 -1.0667508 0.25498098 -0.85098696 0.20598193 -1.1277372 0.46505266 0.3182843 -0.9492399 -0.1709984 0.7248231 -0.034618884 -0.59646523 -0.4882555 -0.36119485 0.96744853 -0.5943207
plus -0.5258405 -0.5320947 -0.43382734 -1.3877128 0.22907576 -0.08487431 0.7902463 -0.17079884 0.6852256 -0.4277139 0.93695843 -0.21296142 1.2263724 -0.43563622 0.65987235 0.38388708 -0.7166737 -0.15014035 -0.74344206 -0.013033543 -0.8335491 0.551902 0.5633138 -1.1366727 -0.023328666 1.0191525 0.17686431 -0.68537295 -0.45255467 -0.25939605 1.185799 -0.098220356
tell -0.49921215 -0.6171994 -0.258244 -1.442611 0.57540774 -0.052108504 1.085847 -0.18391678 0.7694217 -0.56310093 0.706034 -0.33349875 1.0646116 -0.59688866 0.78866655 0.56747 -0.7846751 -0.29158926 -0.7251078 -0.060097557 -0.8636609 0.46381876 0.73412466 -1.4836874 0.10165361 1.2012131 0.18278861 -0.558758 -0.5995608 -0.23392938 1.3952346 0.08611172
command -0.72961575 -0.5072329 -0.53410316 -1.651271 0.3043073 0.12583926 0.6174531 -0.087574184 0.5784483 -0.36190414 1.0905883 -0.14220677 1.4877849 -0.43636325 0.65666074 0.37619212 -0.80358386 0.063886724 -0.81879103 0.045838382 -0.87614787 0.71717596 0.4969727 -1.1470454 -0.27122593 1.0143846 0.21592808 -1.0060511 -0.45760784 -0.41767067 1.2458532 -0.38931355
content -0.54610384 -0.6855139 -0.36671588 -1.4043708 0.2708328 0.005913448 1.0001255 -0.16715553 0.78863436 -0.5495878 0.87311924 -0.24692102 1.1535084 -0.40484953 0.7923761 0.35583127 -0.5435809 -0.33805895 -0.77875215 -0.13625805 -0.7950565 0.6081402 0.7311657 -1.23936 0.21203259 1.0876585 0.2272496 -0.69790244 -0.5731356 -0.26684412 1.25281 0.20101511
though -0.5640957 -0.50520647 -0.55153364 -1.3341926 0.10149357 -0.23910604 0.38481268 -0.21790384 0.61456805 -0.1362485 0.9697578 -0.08266898 1.3134845 -0.48233104 0.39614955 0.46286622 -0.6724826 0.2559641 -0.83583784 0.02646229 -0.838167 0.56293756 0.4272866 -1.1121006 -0.1051057 0.7080344 0.09941758 -0.54214436 -0.6693394 -0.22589405 1.0348126 -0.46315995
beat -0.60840636 -0.32494393 -0.7848454 -1.5072626 -0.47138342 -0.40221047 0.09767789 0.103471324 0.28104517 0.18676905 0.81463075 0.22349262 1.9923682 -0.2261131 0.043243814 0.43479136 -0.91458565 0.4739419 -0.9332153 -0.0768926 -0.70822513 0.4624741 0.079238124 -1.0235599 -0.0026785897 0.4365524 0.033233583 -0.3017332 -0.85799503 -0.42181113 0.7070049 -0.800124
system -0.65300894 -0.35658503 -0.539783 -1.4384683 -0.032361154 0.0025797402 0.53989255 -0.16759382 0.59582907 -0.27088544 0.9143163 -0.095049806 1.42717 -0.3889386 0.6422856 0.39965945 -0.7623328 0.039054744 -0.7762452 -0.062445864 -0.9581399 0.6212481 0.32047775 -1.0243529 -0.23356739 0.92319965 0.12217629 -0.9119986 -0.44015115 -0.33469617 1.0511113 -0.5075381
unit -0.4208414 -0.30651802 -0.63022816 -1.0553491 -0.39886606 -0.44283116 0.3615175 -0.3056801 0.62517476 0.044400144 0.63605636 -0.006626769 1.252602 -0.5657476 0.4113356 0.567969 -1.0951959 0.07740975 -0.72754896 -0.06087587 -1.1812379 0.2740824 0.112344675 -1.0271066 -0.09031964 0.7597974 -0.016859418 -0.38072544 -0.55726445 -0.18844637 0.99506176 -0.59021145
easily -0.53756475 -0.43049935 -0.35954478 -1.4455999 0.097533956 -0.059425175 0.73871535 -0.117890306 0.6418638 -0.3742796 0.8600476 -0.21308978 1.3232492 -0.45787442 0.65886146 0.33182344 -0.7953957 -0.2318309 -0.6950447 -0.00824264 -0.96212703 0.52903175 0.36012277 -1.056565 -0.107134715 0.93548954 0.13448167 -0.7985721 -0.3640788 -0.2750541 1.2273808 -0.2947978
favorite -0.47115576 -0.77012336 -0.15527882 -1.3550572 0.36119452 0.09278706 1.373938 -0.124965854 0.755182 -0.7941656 0.5388916 -0.33728838 0.9455098 -0.45796946 1.0368534 0.38556245 -0.74620956 -0.69717515 -0.6444399 -0.018989122 -0.9209038 0.49062106 0.8455 -1.3726265 0.37653214 1.386094 0.16482931 -0.6375967 -0.39769715 -0.3580281 1.4232581 0.48488212
different -0.4766937 -0.42134887 -0.33862296 -1.2483397 0.08248368 -0.33487666 0.7421776 -0.21548268 0.64095205 -0.34642282 0.7059135 -0.28770778 1.0749412 -0.4759255 0.5547609 0.4264815 -0.8079572 -0.32250136 -0.5261149 0.027996665 -0.9139663 0.42024988 0.42181364 -1.1785569 0.014067022 0.9941318 0.02517013 -0.4185331 -0.48677242 -0.183431 1.1290729 -0.12461136
basic -0.6819304 -0.414402 -0.49487332 -1.3973142 -0.08550571 0.014109179 0.60781765 -0.11113094 0.44472265 -0.2086936 0.73267424 -0.021240149 1.3808987 -0.27936673 0.52096885 0.341086 -0.74756056 0.06912049 -0.87841976 -0.07363006 -0.7983833 0.44815874 0.36285302 -1.0437378 -0.023911374 0.81659627 0.06882265 -0.72819114 -0.5418786 -0.3672837 0.92546237 -0.45066008
several -0.2058984 -0.45587462 -0.49175283 -0.7487923 -0.6198087 -0.85256004 0.68765795 -0.32925835 0.9323345 -0.093106985 0.3962005 -0.24871476 0.93054056 -0.7731825 0.43067685 0.7313563 -1.336669 -0.33857754 -0.5788738 0.016951362 -1.3553177 0.082977146 0.20662102 -1.1977521 0.19990097 0.8322918 -0.116896205 -0.035112668 -0.508343 -0.11430718 1.2740779 -0.043823056
big -0.47820723 -0.36024198 -0.5722044 -1.2269733 -0.20714545 -0.27209327 0.4420793 -0.12930843 0.5992083 -0.0955338 0.7676063 -0.07451836 1.2812634 -0.5200135 0.4583111 0.38240615 -0.89421797 -0.012776794 -0.63972884 0.05466422 -1.0171784 0.36411333 0.19899823 -0.90915406 -0.13515314 0.7413858 -0.02276798 -0.5755208 -0.44562072 -0.21993883 1.0021646 -0.48214614
slow -0.5403254 -0.47340846 -0.60052407 -1.3226753 0.09536008 -0.19105105 0.34328791 -0.21517013 0.5842535 -0.097450525 1.0322119 -0.06334357 1.3398341 -0.44755575 0.3790092 0.45243356 -0.6906531 0.2605833 -0.88729644 0.04484161 -0.8072982 0.5551166 0.44300961 -1.0109074 -0.19911817 0.66500574 0.099893875 -0.5417949 -0.6692209 -0.23526737 0.9597838 -0.48402402
yet -0.44564056 -0.372156 -0.49426562 -1.130556 -0.20699562 -0.46405616 0.53452927 -0.23408617 0.6798058 -0.069755346 0.6856684 -0.12725174 1.2351346 -0.50792956 0.38919222 0.51045793 -0.9347228 -0.071818955 -0.6587883 0.01178457 -0.9743836 0.33320263 0.22028807 -1.1044431 0.023039289 0.7664109 -0.021395024 -0.3439976 -0.6204332 -0.16744041 1.0592529 -0.4147874
grandson -0.19319974 -0.13030928 -0.39476165 -0.42307103 -1.2475935 -0.85117763 0.88097984 -0.35388118 0.71411735 -0.06651361 -0.34057832 -0.17802021 0.73542756 -0.70133984 0.6878445 0.7191851 -1.7454723 -0.7942767 -0.26044825 -0.087768346 -1.6376538 -0.17456599 -0.20759189 -1.1559731 0.4029334 1.1346729 -0.39086214 0.0008201624 -0.18719746 -0.18064697 1.1425762 -0.06993272
stream -0.55115885 -0.69457495 -0.3754787 -1.3533885 0.27536488 0.12965554 1.0462744 -0.17161553 0.6672335 -0.60039455 0.7124518 -0.18973789 1.004639 -0.37287775 0.77981424 0.2883414 -0.5109601 -0.38006848 -0.83721393 -0.15774259 -0.6624572 0.52327454 0.7918851 -1.1288509 0.27766272 1.0939691 0.26223257 -0.61806226 -0.5113598 -0.30778134 1.1897433 0.317466
night -0.49421608 -0.42759946 -0.32797852 -1.420589 0.10073951 0.062709674 0.708075 -0.29144013 0.68850607 -0.42374632 0.9215398 -0.28413972 1.1991363 -0.5787563 0.735888 0.31150135 -1.0274384 -0.28029007 -0.7978613 0.1250019 -1.164231 0.55874705 0.4956067 -0.97386163 -0.10839971 1.1575253 0.12549882 -0.87463737 -0.2062959 -0.4403173 1.355211 -0.33000797
listen -0.4671372 -0.8182517 -0.1122486 -1.5576373 0.5923636 0.36387455 1.3402143 -0.033524845 0.7063204 -0.8434243 0.81559175 -0.2980718 0.8611361 -0.36173958 1.07338 0.13085291 -0.4773247 -0.6231286 -0.7380345 0.046739295 -0.6304996 0.4752539 0.87382376 -1.2107396 0.22077447 1.3234276 0.35533264 -0.78689176 -0.30988497 -0.38070822 1.3809342 0.6104902
found -0.44150674 -0.34535742 -0.45270547 -1.1516742 -0.23880541 -0.48687375 0.5925168 -0.26275584 0.6889963 -0.15568498 0.6158636 -0.098573126 1.2025534 -0.517456 0.44583288 0.54396284 -0.9631133 -0.11486257 -0.61465204 -0.07842966 -1.013576 0.27696896 0.2018379 -1.1120305 0.0667768 0.79192805 -0.0111211715 -0.28237838 -0.6297513 -0.11658792 1.0865481 -0.3541712
u -0.42505616 -0.419112 -0.35069352 -1.2042464 0.01924142 -0.29271743 0.7683071 -0.20316109 0.66273785 -0.26929456 0.630533 -0.21729209 1.117761 -0.5150914 0.5799621 0.52119726 -0.91982263 -0.22097702 -0.6108018 -0.035039205 -0.98541903 0.3681514 0.3419203 -1.1916009 0.07783963 0.93539894 0.06358655 -0.4978213 -0.48107076 -0.20176521 1.2112092 -0.2010534
feel -0.54897565 -0.3890447 -0.7402239 -1.4043909 -0.07172587 -0.22533326 0.31089902 -0.23232475 0.582251 -0.046381496 1.0409287 -0.04079444 1.4554675 -0.46361092 0.42490232 0.36094254 -0.85882694 0.20552073 -0.8699933 0.027974127 -1.047869 0.5357005 0.3281463 -1.0166864 -0.2293354 0.8181272 0.022373566 -0.67644405 -0.5712235 -0.3436143 0.9544792 -0.70158434
cost -0.5733821 -0.3690377 -0.7309054 -1.2870111 -0.26560867 -0.4239961 0.23733748 -0.244761 0.5788627 0.12436743 0.80647904 0.12959772 1.513423 -0.44998938 0.27362272 0.5259249 -0.8840166 0.3780885 -0.92485136 -0.1338058 -0.92885256 0.32330233 0.18409838 -1.077076 -0.15387572 0.53365403 -0.0033319609 -0.41984922 -0.87193906 -0.20042051 0.8730556 -0.77191764
carry -0.55315584 -0.13209926 -0.38514826 -1.4904071 0.044887006 0.25740665 0.5869566 -0.13389622 0.41920173 -0.39358017 0.8699961 -0.06400899 1.3730046 -0.39539295 0.78792083 0.17667831 -0.91063 -0.10218172 -0.6298353 0.0033918885 -1.0683153 0.41764554 0.18457206 -0.61775005 -0.32228085 1.0918885 -0.018167306 -1.2799546 0.052643172 -0.48208556 1.1236432 -0.6437494
model -0.35236004 -0.32545468 -0.8719821 -0.89274985 -0.56333256 -1.0231416 0.2218612 -0.3910733 0.8039806 0.13450949 0.65972006 -0.08588178 1.118269 -0.6984417 0.13087632 0.6978337 -1.2073857 0.07377783 -0.611728 0.03248604 -1.2526672 0.13695122 0.061419234 -1.1730556 -0.046425335 0.70544565 -0.091660045 0.22161534 -0.770575 -0.0064583523 0.9334683 -0.52211887
mom -0.13477178 0.020832153 -0.33948177 -0.47034037 -1.1112055 -0.79104626 0.71075004 -0.36065793 0.6695721 0.06202883 -0.2404179 -0.15548995 0.7814444 -0.70021486 0.6203957 0.7239146 -1.662205 -0.6442448 -0.17449221 -0.08023245 -1.6241313 -0.18143028 -0.32242584 -1.0462806 0.3467207 0.99697185 -0.42261666 0.010120791 -0.23133922 -0.1270786 1.0463395 -0.27697015
buying -0.27811852 -0.10890583 -0.6002049 -1.0132278 -0.45193565 -0.8086524 0.42774737 -0.5316911 0.7461231 0.14925632 0.31699628 0.053078447 1.2770139 -0.62433684 0.25461155 0.7566184 -1.1832154 0.06798202 -0.7225638 -0.40391174 -1.1139944 -0.16306049 -0.22262499 -1.2173067 0.07453768 0.5908546 0.015542331 -0.006592762 -0.98327476 0.1394042 1.0908587 -0.71759695
storage -0.5644313 -0.5102979 -0.6147013 -1.3951944 0.22557457 -0.13228992 0.4611834 -0.29870418 0.5987633 -0.21122514 1.1273282 0.014462873 1.327571 -0.46435446 0.4934977 0.4727048 -0.68101704 0.33177593 -0.89583725 -0.0009914727 -0.7979206 0.53304297 0.4456035 -0.91315675 -0.15991849 0.92111033 0.2131752 -0.728057 -0.49882784 -0.23649539 0.9619975 -0.47546294
run -0.53084576 -0.5924512 -0.54895484 -1.3383278 0.06839378 -0.08206725 0.4921622 -0.22213335 0.59338236 -0.2843021 0.99997133 -0.1572951 1.2471585 -0.4829267 0.401877 0.4195981 -0.7010707 0.18605763 -0.8616818 0.1043473 -0.7603183 0.63831604 0.6157543 -1.0118372 -0.15439247 0.7860169 0.13651292 -0.6304771 -0.50428456 -0.3649518 1.0278352 -0.29493192
friday -0.20964226 0.22005045 -0.8498787 -0.96422195 -1.714311 -1.2441494 0.49239114 -0.010236383 0.6892487 0.5387158 0.06449572 0.34618264 1.9062914 -0.72199106 0.1133767 1.3141272 -1.9342728 -0.17228474 -0.34543383 -0.04951556 -2.196562 -0.14942937 -0.4466133 -1.3589259 0.06095334 0.21143329 -0.7470266 0.557444 -1.3036134 -0.05044171 1.019502 -1.0528121
cheap -0.5507702 -0.28173843 -0.58218974 -1.2078991 -0.4298577 -0.3462975 0.4155784 -0.18016703 0.5260283 0.07303098 0.5510551 0.122932754 1.4520041 -0.40097976 0.39703196 0.5250836 -0.9917003 0.123272054 -0.7570733 -0.14077277 -1.0355986 0.22566725 0.056284115 -1.0270301 0.0015340827 0.6332507 -0.084337965 -0.47465882 -0.7104877 -0.23308139 0.8823676 -0.69406486
fit -0.57446766 -0.26744705 -0.62149173 -1.3735946 -0.21801332 -0.0679183 0.45679972 -0.100236505 0.5219185 -0.08973045 0.89609504 -0.046938196 1.4473037 -0.4923299 0.5826046 0.38426292 -1.064407 -0.040260542 -0.72631526 0.06833418 -1.1878203 0.45526636 0.17761031 -0.8963327 -0.29166186 0.95882034 -0.0073794075 -0.8351548 -0.19329078 -0.3891225 1.1257657 -0.6995127
week -0.12919357 -0.56883353 -0.5928832 -0.7113396 -0.72922814 -0.85932106 0.3327242 -0.48314497 0.8161912 0.18222134 0.728923 -0.17502017 1.0378982 -0.9011356 0.35314697 0.77171665 -1.4855995 0.01711015 -0.67912817 0.33069697 -1.4177815 0.31631052 0.24884236 -1.079593 0.013610481 0.7676594 -0.1182629 -0.14559709 -0.5628225 -0.24582778 1.2143422 -0.4712783
husband -0.10451833 -0.031878695 -0.42348036 -0.42605737 -1.0616513 -0.9821182 0.68835914 -0.34426713 0.7375453 0.07023111 -0.19105044 -0.17791209 0.7447259 -0.7265259 0.46334007 0.75751626 -1.6078671 -0.667946 -0.14231795 -0.0030194456 -1.5472898 -0.18281224 -0.28395632 -1.0817004 0.3704545 0.93232965 -0.392885 0.21044415 -0.33882406 -0.019751323 1.0279003 -0.20239219
pleased -0.37638757 -0.16414896 -0.521027 -0.92333454 -0.7136671 -0.61637455 0.39253047 -0.35203692 0.5659979 0.12962118 0.26713923 0.050444964 1.1955929 -0.5002298 0.3740655 0.5456789 -1.1388683 -0.007071027 -0.6064307 -0.109965175 -1.1224494 -0.06765949 -0.213285 -0.87966853 0.13708329 0.6055238 -0.13865186 -0.21317671 -0.68352294 -0.075682186 0.8876631 -0.60867584
gave -0.16013622 -0.08735175 -0.5155629 -0.49690428 -1.1424688 -1.2036855 0.517038 -0.34614232 0.8981958 0.30925778 -0.10029145 -0.011582451 1.0706503 -0.81448036 0.38334045 0.9250911 -1.7314495 -0.39299902 -0.30519524 -0.10036032 -1.6295443 -0.25952432 -0.42232013 -1.2332103 0.31140593 0.729773 -0.3688404 0.2401755 -0.607383 0.08238186 1.0942446 -0.38684183
must -0.4481596 -0.364556 -0.4988022 -1.2883501 -0.0882394 -0.42523754 0.6480471 -0.30522588 0.7114777 -0.15705973 0.6799678 -0.11917515 1.2153732 -0.4856319 0.49367502 0.49887484 -0.8084259 -0.00011341514 -0.7368924 -0.2238685 -0.9023338 0.24598132 0.20393525 -1.085959 0.1674623 0.73007816 0.11987232 -0.44862223 -0.8161891 -0.083996244 1.1244195 -0.3688519
older -0.31389827 -0.2602669 -0.78926545 -0.7800174 -0.7780863 -1.0785011 0.35005525 -0.39239228 0.8523837 0.04341117 0.37994424 -0.16998467 1.0251642 -0.7717939 0.229991 0.7183635 -1.3756963 -0.23351009 -0.4863656 -0.025319604 -1.4560964 0.0051700575 -0.06513983 -1.1589487 0.117273346 0.87417203 -0.1940415 0.23094082 -0.61441714 -0.04545803 0.9661368 -0.35854927
decided -0.30823052 -0.3169893 -0.60825014 -0.79994226 -0.5672133 -1.2394415 0.55107266 -0.26952046 0.94506335 0.1417713 0.4087174 -0.15596397 1.088834 -0.72940826 0.14459749 0.78080446 -1.2817405 -0.27060407 -0.4689533 -0.09646129 -1.2796829 -0.05557823 -0.046844393 -1.3307998 0.17889394 0.5994787 -0.15229614 0.4454006 -0.9341373 0.14793204 1.1274785 -0.33825332
fine -0.54296684 -0.40350115 -0.5505099 -1.2690665 -0.10432998 -0.3015043 0.49371713 -0.18488966 0.50096905 -0.14828824 0.69797635 -0.055087626 1.2168013 -0.43225256 0.42803326 0.4797401 -0.7639435 0.120334655 -0.79342043 0.039110783 -0.86047775 0.35442507 0.2595572 -0.95921737 -0.08886362 0.70693725 0.042789277 -0.4934609 -0.61319244 -0.19905265 1.0194905 -0.47374126
shopping -0.5936542 -0.6409375 -0.23883542 -1.5658915 0.61453825 0.034737587 1.0915682 -0.1416208 0.81350917 -0.67903864 1.0329068 -0.31401163 1.233136 -0.4853328 0.8142237 0.33636165 -0.6077752 -0.232603 -0.77710015 -0.04553757 -0.8115838 0.6192065 0.75838375 -1.3459944 0.05703179 1.1927446 0.28761742 -0.7703065 -0.53595304 -0.2994743 1.359819 0.20290478
hard -0.42942405 -0.4188152 -0.42835948 -1.2108954 -0.0025723735 -0.3276357 0.49550825 -0.21148926 0.62852293 -0.13628681 0.802953 -0.19814737 1.2193693 -0.5314718 0.38767654 0.4365796 -0.853627 -0.05683361 -0.72280014 0.060359046 -0.9554541 0.4435913 0.34406662 -1.0313015 -0.119986154 0.7631863 0.08052562 -0.48223668 -0.5709462 -0.23775786 1.0918052 -0.4336107
parental -0.5981979 0.31254533 -0.019298006 -1.1371622 -0.22808814 0.45888487 0.7463571 -0.25990704 0.37132627 -0.31771442 0.2601729 -0.5813063 1.1511344 -0.32224518 1.0140054 -0.043908097 -0.8266141 -0.6969281 -0.1116742 0.12598 -1.2989252 0.85932577 -0.000926126 -0.70514077 -0.5778566 1.3236701 0.20105699 -1.3982424 0.21302432 -0.30149418 0.9618152 -0.4480852
clear -0.5879412 -0.36229137 -0.5890661 -1.4130021 -0.21620755 0.36876157 0.20977354 -0.14522612 0.2658855 -0.1278774 0.87453413 0.15875721 1.5446446 -0.31467465 0.678213 0.11242382 -0.7556451 0.3445037 -0.8701296 0.08683451 -1.0078892 0.57353854 0.15160938 -0.550375 -0.32735178 0.8047881 0.0426453 -1.286749 -0.15517296 -0.58460796 0.79094356 -0.8003822
super -0.51656 -0.115569636 -0.35615686 -1.2715017 -0.5009914 0.064693004 0.40507105 -0.22072653 0.3821625 -0.17528838 0.60040355 0.04423981 1.4551545 -0.3714691 0.7361417 0.30815613 -1.1065 -0.017196672 -0.6010102 -0.02969819 -1.2253596 0.3406248 -0.0453746 -0.6087533 -0.16370672 0.9180331 -0.04602186 -1.1069592 -0.08738472 -0.45156232 1.0046252 -0.7963864
review -0.36090687 -0.34813592 -0.41230848 -0.9703893 -0.24819759 -0.51396424 0.5969569 -0.2654314 0.6906221 -0.10432384 0.46756172 -0.11123599 1.0366768 -0.47983655 0.40337732 0.4874958 -0.9551066 -0.22424826 -0.57971364 -0.070025384 -1.0259371 0.15421925 0.14477806 -1.0243101 0.14730579 0.75353205 -0.022924814 -0.13828424 -0.6030829 -0.08819761 1.0266505 -0.25928572
replace -0.19503154 -0.24540591 -0.7032149 -0.5625681 -0.97377676 -1.3472265 0.52864575 -0.46999833 0.8753693 0.17164923 0.14966455 -0.2560302 0.8532649 -0.89676225 0.30345437 0.8278866 -1.6248999 -0.48480436 -0.31279728 -0.0057986192 -1.5481546 -0.081979044 -0.09439323 -1.3565443 0.17047298 0.9208201 -0.3682144 0.52831995 -0.7057155 0.08075282 1.1057322 -0.25399327
low -0.63547 -0.2990645 -0.70806783 -1.3879305 -0.37004277 -0.17293093 0.195313 -0.12748733 0.45871735 0.101406924 0.87480015 0.15809643 1.6521616 -0.35836333 0.36477268 0.3988278 -0.8970776 0.43348634 -0.93905693 -0.0071911383 -0.99221987 0.40334675 0.0696138 -0.8577815 -0.26450363 0.5537235 0.0046851356 -0.8033106 -0.63322705 -0.34432715 0.8499807 -0.90317494
le -0.45943713 -0.40234652 -0.68850183 -1.1507341 -0.22674504 -0.543317 0.2896947 -0.2385545 0.6548179 0.053703886 0.8159794 -0.040147632 1.3499945 -0.52463 0.26095116 0.5400114 -0.9357204 0.21460329 -0.7938785 -0.023684077 -1.0139502 0.3422658 0.25102752 -1.0654149 -0.10463686 0.59454775 0.0109032355 -0.29104495 -0.74103093 -0.15314971 0.9471996 -0.59791505
upgrade -0.38789997 -0.20955117 -0.82969505 -0.7983168 -0.7818072 -0.9625891 0.27290434 -0.4231692 0.69552153 0.13416494 0.39494923 -0.019841533 1.0688636 -0.6925249 0.21734835 0.65960634 -1.2376208 0.006112993 -0.58262086 -0.095047824 -1.2644271 0.045628212 -0.106857106 -1.0597256 0.032772794 0.741415 -0.1585788 0.18519124 -0.72765416 -0.008168871 0.8172473 -0.5195029
